{"learner":{"attributes":{"best_iteration":"1","best_score":"0.50173100185776","scikit_learn":"{\"_estimator_type\": \"classifier\"}"},"feature_names":[],"feature_types":[],"gradient_booster":{"model":{"cats":{"enc":[],"feature_segments":[],"sorted_idx":[]},"gbtree_model_param":{"num_parallel_tree":"1","num_trees":"52"},"iteration_indptr":[0,1,2,3,4,5,6,7,8,9,10,11,12,13,14,15,16,17,18,19,20,21,22,23,24,25,26,27,28,29,30,31,32,33,34,35,36,37,38,39,40,41,42,43,44,45,46,47,48,49,50,51,52],"tree_info":[0,0,0,0,0,0,0,0,0,0,0,0,0,0,0,0,0,0,0,0,0,0,0,0,0,0,0,0,0,0,0,0,0,0,0,0,0,0,0,0,0,0,0,0,0,0,0,0,0,0,0,0],"trees":[{"base_weights":[5.742502E-3,-1.9088577E0,1.9771923E0,-1.9789925E0,-3.3175156E-1,-5.9968226E-2,1.9940063E0,-1.9914762E0,1.2422219E-1,-1.5283878E0,1.3318855E0,1.9986006E0,-1.724835E0,-5.984469E-2,-5.128045E-2,-5.9950706E-2,5.9375357E-2,-5.9990887E-2,-2.665736E-2,-5.9863713E-2,4.5596093E-2,5.9966896E-2,-5.823529E-2,4.72743E-2,-5.988235E-2],"categories":[],"categories_nodes":[],"categories_segments":[],"categories_sizes":[],"default_left":[0,0,0,0,0,0,0,0,0,0,0,0,0,0,0,0,0,0,0,0,0,0,0,0,0],"id":0,"left_children":[1,3,5,7,9,-1,11,13,15,17,19,21,23,-1,-1,-1,-1,-1,-1,-1,-1,-1,-1,-1,-1],"loss_changes":[3.4349255E6,5.1064625E4,2.997875E4,1.1605625E4,3.913607E4,0E0,7.631625E3,4.11625E2,1.027655E4,3.4461543E3,5.147448E3,5.2375E2,4.9683203E2,0E0,0E0,0E0,0E0,0E0,0E0,0E0,0E0,0E0,0E0,0E0,0E0],"parents":[2147483647,0,0,1,1,2,2,3,3,4,4,6,6,7,7,8,8,9,9,10,10,11,11,12,12],"right_children":[2,4,6,8,10,-1,12,14,16,18,20,22,24,-1,-1,-1,-1,-1,-1,-1,-1,-1,-1,-1,-1],"split_conditions":[1E0,5E-1,9.269741E0,1.7548342E1,5.227269E0,-5.9968226E-2,4.173602E0,3.3333334E-1,2.1428572E-1,1.1515103E1,1.0202369E1,1.9459101E0,1.5002752E1,-5.984469E-2,-5.128045E-2,-5.9950706E-2,5.9375357E-2,-5.9990887E-2,-2.665736E-2,-5.9863713E-2,4.5596093E-2,5.9966896E-2,-5.823529E-2,4.72743E-2,-5.988235E-2],"split_indices":[24,28,3,3,19,0,4,28,28,3,3,14,3,0,0,0,0,0,0,0,0,0,0,0,0],"split_type":[0,0,0,0,0,0,0,0,0,0,0,0,0,0,0,0,0,0,0,0,0,0,0,0,0],"sum_hessian":[9.1002344E5,4.6166816E5,4.4835525E5,4.420114E5,1.9656754E4,1.8875E3,4.4646775E5,4.3940334E5,2.608051E3,1.1433117E4,8.223638E3,4.459173E5,5.5043384E2,4.3424575E5,5.157588E3,1.21625E3,1.391801E3,6.58225E3,4.850867E3,4.3925E2,7.784387E3,4.458843E5,3.3E1,4.143381E1,5.09E2],"tree_param":{"num_deleted":"0","num_feature":"32","num_nodes":"25","size_leaf_vector":"1"}},{"base_weights":[-2.6051252E-4,-1.8427312E0,1.9277277E0,-1.9250036E0,-1.444727E-1,1.934706E0,-5.8183752E-2,-1.9308647E0,-6.4106673E-1,-1.5365359E0,1.2171644E0,5.544492E-1,1.9414619E0,-5.7975534E-2,2.0876896E-2,-5.8213692E-2,5.7701927E-2,-5.0245397E-2,4.003768E-2,3.993303E-2,-5.860696E-2,5.7590347E-2,-5.818189E-2,5.825374E-2,5.7340138E-2],"categories":[],"categories_nodes":[],"categories_segments":[],"categories_sizes":[],"default_left":[0,0,0,0,0,0,0,0,0,0,0,0,0,0,0,0,0,0,0,0,0,0,0,0,0],"id":1,"left_children":[1,3,5,7,9,11,-1,13,15,17,19,21,23,-1,-1,-1,-1,-1,-1,-1,-1,-1,-1,-1,-1],"loss_changes":[3.221728E6,6.479625E4,1.1963875E4,3.327375E3,4.062196E4,4.12425E3,0E0,1.913375E3,6.7065884E3,4.2103926E3,3.9164824E3,7.3450435E3,7.5E-1,0E0,0E0,0E0,0E0,0E0,0E0,0E0,0E0,0E0,0E0,0E0,0E0],"parents":[2147483647,0,0,1,1,2,2,3,3,4,4,5,5,7,7,8,8,9,9,10,10,11,11,12,12],"right_children":[2,4,6,8,10,12,-1,14,16,18,20,22,24,-1,-1,-1,-1,-1,-1,-1,-1,-1,-1,-1,-1],"split_conditions":[6.391917E0,5E-1,4.4426513E0,5.7365723E0,1.609438E0,1E0,-5.8183752E-2,1.1139686E1,2.1428572E-1,1E0,1.6422278E0,2.4849067E0,4.830918E-3,-5.7975534E-2,2.0876896E-2,-5.8213692E-2,5.7701927E-2,-5.0245397E-2,4.003768E-2,3.993303E-2,-5.860696E-2,5.7590347E-2,-5.818189E-2,5.825374E-2,5.7340138E-2],"split_indices":[27,28,21,27,27,24,0,29,28,24,14,22,28,0,0,0,0,0,0,0,0,0,0,0,0],"split_type":[0,0,0,0,0,0,0,0,0,0,0,0,0,0,0,0,0,0,0,0,0,0,0,0,0],"sum_hessian":[9.069491E5,4.637598E5,4.4318934E5,4.423309E5,2.1428922E4,4.4239156E5,7.977849E2,4.4032038E5,2.0105175E3,1.0596012E4,1.083291E4,2.15525E3,4.402363E5,4.4004372E5,2.766725E2,1.3345546E3,6.759629E2,1.0109426E4,4.86585E2,1.0457704E4,3.7520566E2,1.3929336E3,7.6231635E2,4.3541288E5,4.82344E3],"tree_param":{"num_deleted":"0","num_feature":"32","num_nodes":"25","size_leaf_vector":"1"}},{"base_weights":[-1.1728877E-3,-1.8000042E0,1.8748392E0,-1.8730469E0,-2.278351E-1,-1.0931978E0,1.8808495E0,-1.8787782E0,-1.784826E-1,-1.4667516E0,1.1159989E0,5.5283483E-2,-5.658022E-2,-5.6533888E-2,1.8847519E0,-5.637335E-2,5.955057E-2,-5.6598257E-2,5.5946946E-2,-4.682074E-2,3.348901E-2,-5.8398217E-2,4.1572496E-2,-5.645577E-2,5.6612417E-2],"categories":[],"categories_nodes":[],"categories_segments":[],"categories_sizes":[],"default_left":[0,0,0,0,0,0,0,0,0,0,0,0,0,0,0,0,0,0,0,0,0,0,0,0,0],"id":2,"left_children":[1,3,5,7,9,11,13,15,17,19,21,-1,-1,-1,23,-1,-1,-1,-1,-1,-1,-1,-1,-1,-1],"loss_changes":[3.050288E6,5.2988875E4,7.895E3,4.282E3,3.4111348E4,2.0862832E3,6.491625E3,5.7025E2,5.1952476E3,2.5884883E3,8.1221963E3,0E0,0E0,0E0,3.872625E3,0E0,0E0,0E0,0E0,0E0,0E0,0E0,0E0,0E0,0E0],"parents":[2147483647,0,0,1,1,2,2,3,3,4,4,5,5,6,6,7,7,8,8,9,9,10,10,14,14],"right_children":[2,4,6,8,10,12,14,16,18,20,22,-1,-1,-1,24,-1,-1,-1,-1,-1,-1,-1,-1,-1,-1],"split_conditions":[6.391917E0,5E-1,2.667468E-1,1.7548342E1,1.609438E0,2.3978953E0,4.5601237E-3,1.0148354E1,2.1428572E-1,1E0,9.269741E0,5.5283483E-2,-5.658022E-2,-5.6533888E-2,1.1515103E1,-5.637335E-2,5.955057E-2,-5.6598257E-2,5.5946946E-2,-4.682074E-2,3.348901E-2,-5.8398217E-2,4.1572496E-2,-5.645577E-2,5.6612417E-2],"split_indices":[27,28,18,3,27,22,4,1,28,24,3,0,0,0,3,0,0,0,0,0,0,0,0,0,0],"split_type":[0,0,0,0,0,0,0,0,0,0,0,0,0,0,0,0,0,0,0,0,0,0,0,0,0],"sum_hessian":[9.038863E5,4.6143506E5,4.4245122E5,4.409485E5,2.0486566E4,8.938024E2,4.415574E5,4.3946206E5,1.4864514E3,1.0659342E4,9.827224E3,1.8975728E2,7.0404517E2,4.566553E2,4.4110075E5,4.3942462E5,3.7420753E1,8.0968616E2,6.7676526E2,1.0285671E4,3.736708E2,7.950008E2,9.032223E3,2.7205255E2,4.4082872E5],"tree_param":{"num_deleted":"0","num_feature":"32","num_nodes":"25","size_leaf_vector":"1"}},{"base_weights":[4.5122197E-3,-1.7481858E0,1.8262044E0,-1.8243926E0,-1.5883616E-1,1.8328376E0,-5.512474E-2,-1.8259537E0,6.7262214E-1,-1.4034389E0,1.121543E0,-5.5072203E-2,1.8366452E0,-5.4889463E-2,-2.7346248E-2,-5.665263E-2,5.1982988E-2,-4.591426E-2,3.7945066E-2,4.0322013E-2,-9.42913E-3,-5.4973926E-2,5.512719E-2],"categories":[],"categories_nodes":[],"categories_segments":[],"categories_sizes":[],"default_left":[0,0,0,0,0,0,0,0,0,0,0,0,0,0,0,0,0,0,0,0,0,0,0],"id":3,"left_children":[1,3,5,7,9,11,-1,13,15,17,19,-1,21,-1,-1,-1,-1,-1,-1,-1,-1,-1,-1],"loss_changes":[2.8846725E6,5.5769625E4,1.07695E4,1.714E3,3.3576426E4,6.18025E3,0E0,1.482E3,7.506378E2,3.6235488E3,3.3187998E3,0E0,1.507375E3,0E0,0E0,0E0,0E0,0E0,0E0,0E0,0E0,0E0,0E0],"parents":[2147483647,0,0,1,1,2,2,3,3,4,4,5,5,7,7,8,8,9,9,10,10,12,12],"right_children":[2,4,6,8,10,12,-1,14,16,18,20,-1,22,-1,-1,-1,-1,-1,-1,-1,-1,-1,-1],"split_conditions":[6.391917E0,5E-1,4.4426513E0,1.1139686E1,1.609438E0,4.5601237E-3,-5.512474E-2,5.7365723E0,1E0,1E0,4.1666668E-4,-5.5072203E-2,3.8918202E0,-5.4889463E-2,-2.7346248E-2,-5.665263E-2,5.1982988E-2,-4.591426E-2,3.7945066E-2,4.0322013E-2,-9.42913E-3,-5.4973926E-2,5.512719E-2],"split_indices":[27,28,21,29,27,4,0,27,24,24,31,0,20,0,0,0,0,0,0,0,0,0,0],"split_type":[0,0,0,0,0,0,0,0,0,0,0,0,0,0,0,0,0,0,0,0,0,0,0],"sum_hessian":[9.0346944E5,4.604543E5,4.4301516E5,4.3938628E5,2.106804E4,4.4221503E5,8.0013605E2,4.39112E5,2.742652E2,1.0683228E4,1.03848125E4,4.5799847E2,4.4175703E5,4.3734372E5,1.7682844E3,8.006556E1,1.9419965E2,1.0198121E4,4.8510574E2,8.991409E3,1.393403E3,1.1118068E2,4.4164584E5],"tree_param":{"num_deleted":"0","num_feature":"32","num_nodes":"23","size_leaf_vector":"1"}},{"base_weights":[2.3054928E-3,-1.7065524E0,1.7813762E0,-1.7779838E0,-1.9805667E-1,1.7878555E0,-5.377487E-2,-1.7841519E0,-5.2287847E-2,-1.4060887E0,1.0703373E0,-5.3724658E-2,1.7915767E0,-5.3862583E-2,-5.0280087E-2,-5.3793546E-2,5.4805003E-2,-4.5593683E-2,3.5110995E-2,-5.7029974E-2,3.9906356E-2,-5.467865E-2,5.3791642E-2],"categories":[],"categories_nodes":[],"categories_segments":[],"categories_sizes":[],"default_left":[0,0,0,0,0,0,0,0,0,0,0,0,0,0,0,0,0,0,0,0,0,0,0],"id":4,"left_children":[1,3,5,7,9,11,-1,13,15,17,19,-1,21,-1,-1,-1,-1,-1,-1,-1,-1,-1,-1],"loss_changes":[2.7301682E6,4.935675E4,1.019125E4,4.655125E3,3.1735484E4,5.851875E3,0E0,5.28E2,5.101937E3,3.109373E3,7.8041533E3,0E0,2.346875E3,0E0,0E0,0E0,0E0,0E0,0E0,0E0,0E0,0E0,0E0],"parents":[2147483647,0,0,1,1,2,2,3,3,4,4,5,5,7,7,8,8,9,9,10,10,12,12],"right_children":[2,4,6,8,10,12,-1,14,16,18,20,-1,22,-1,-1,-1,-1,-1,-1,-1,-1,-1,-1],"split_conditions":[6.391917E0,5E-1,4.4426513E0,1.7548342E1,1.609438E0,4.5601237E-3,-5.377487E-2,1.0202369E1,2.1428572E-1,1E0,9.269741E0,-5.3724658E-2,1.1515103E1,-5.3862583E-2,-5.0280087E-2,-5.3793546E-2,5.4805003E-2,-4.5593683E-2,3.5110995E-2,-5.7029974E-2,3.9906356E-2,-5.467865E-2,5.3791642E-2],"split_indices":[27,28,21,3,27,4,0,3,28,24,3,0,3,0,0,0,0,0,0,0,0,0,0],"split_type":[0,0,0,0,0,0,0,0,0,0,0,0,0,0,0,0,0,0,0,0,0,0,0],"sum_hessian":[8.9802675E5,4.5805216E5,4.399746E5,4.373426E5,2.0709562E4,4.3917888E5,7.957053E2,4.3578494E5,1.5576366E3,1.060712E4,1.0102443E4,4.557111E2,4.387232E5,3.94652E5,4.1132957E4,8.085948E2,7.490418E2,1.0159197E4,4.479223E2,8.119949E2,9.290448E3,1.7884196E2,4.3854434E5],"tree_param":{"num_deleted":"0","num_feature":"32","num_nodes":"23","size_leaf_vector":"1"}},{"base_weights":[6.306291E-3,-1.6649826E0,1.7400627E0,-1.7405171E0,-1.24897026E-1,1.7463275E0,-5.252723E-2,-1.7453641E0,-2.4118295E-1,-1.3317972E0,1.0847496E0,-5.2481733E-2,1.7500242E0,-5.2370593E-2,5.774874E-2,-5.254365E-2,5.3297922E-2,-4.320557E-2,3.428771E-2,-5.5519886E-2,3.974585E-2,-5.334342E-2,5.2544106E-2],"categories":[],"categories_nodes":[],"categories_segments":[],"categories_sizes":[],"default_left":[0,0,0,0,0,0,0,0,0,0,0,0,0,0,0,0,0,0,0,0,0,0,0],"id":5,"left_children":[1,3,5,7,9,11,-1,13,15,17,19,-1,21,-1,-1,-1,-1,-1,-1,-1,-1,-1,-1],"loss_changes":[2.587424E6,5.2891125E4,9.5885E3,3.149125E3,3.1036457E4,5.656625E3,0E0,5.14625E2,4.262595E3,2.8560332E3,7.4859375E3,0E0,2.23275E3,0E0,0E0,0E0,0E0,0E0,0E0,0E0,0E0,0E0,0E0],"parents":[2147483647,0,0,1,1,2,2,3,3,4,4,5,5,7,7,8,8,9,9,10,10,12,12],"right_children":[2,4,6,8,10,12,-1,14,16,18,20,-1,22,-1,-1,-1,-1,-1,-1,-1,-1,-1,-1],"split_conditions":[6.391917E0,5E-1,4.4426513E0,1.7548342E1,1.609438E0,4.5601237E-3,-5.252723E-2,1.0148354E1,2.1428572E-1,1E0,9.269741E0,-5.2481733E-2,1.1515103E1,-5.2370593E-2,5.774874E-2,-5.254365E-2,5.3297922E-2,-4.320557E-2,3.428771E-2,-5.5519886E-2,3.974585E-2,-5.334342E-2,5.2544106E-2],"split_indices":[27,28,21,3,27,4,0,1,28,24,3,0,3,0,0,0,0,0,0,0,0,0,0],"split_type":[0,0,0,0,0,0,0,0,0,0,0,0,0,0,0,0,0,0,0,0,0,0,0],"sum_hessian":[8.929498E5,4.5466575E5,4.3828403E5,4.3340878E5,2.1256982E4,4.374994E5,7.84628E2,4.3201203E5,1.3967446E3,1.064052E4,1.0616463E4,4.6166476E2,4.3703772E5,4.319746E5,3.7428467E1,7.9890826E2,5.9783636E2,1.0194439E4,4.460805E2,8.022393E2,9.814224E3,1.7854083E2,4.368592E5],"tree_param":{"num_deleted":"0","num_feature":"32","num_nodes":"23","size_leaf_vector":"1"}},{"base_weights":[-3.3815296E-3,-1.6365485E0,1.6949967E0,-1.7159519E0,-1.071631E0,-5.1798426E-2,1.7095424E0,-5.1466677E-2,-5.2559678E-2,-1.6382529E0,2.1532705E-1,1.7135471E0,-1.4500706E0,-5.063575E-2,-2.4050461E-2,-4.597291E-2,2.9563945E-2,5.1411673E-2,-5.1277135E-2,-5.1582202E-2,6.502904E-2],"categories":[],"categories_nodes":[],"categories_segments":[],"categories_sizes":[],"default_left":[0,0,0,0,0,0,0,0,0,0,0,0,0,0,0,0,0,0,0,0,0],"id":6,"left_children":[1,3,5,7,9,-1,11,-1,-1,13,15,17,19,-1,-1,-1,-1,-1,-1,-1,-1],"loss_changes":[2.4442352E6,2.0148875E4,2.15025E4,2.625E0,4.0372527E4,0E0,5.445375E3,0E0,0E0,1.5938438E3,2.2782826E4,2.6075E2,5.34806E2,0E0,0E0,0E0,0E0,0E0,0E0,0E0,0E0],"parents":[2147483647,0,0,1,1,2,2,3,3,4,4,6,6,9,9,10,10,11,11,12,12],"right_children":[2,4,6,8,10,-1,12,-1,-1,14,16,18,20,-1,-1,-1,-1,-1,-1,-1,-1],"split_conditions":[1E0,1.0202369E1,9.269741E0,5E-1,1.609438E0,-5.1798426E-2,4.173602E0,-5.1466677E-2,-5.2559678E-2,1E0,3.8918202E0,1.9636097E0,6E0,-5.063575E-2,-2.4050461E-2,-4.597291E-2,2.9563945E-2,5.1411673E-2,-5.1277135E-2,-5.1582202E-2,6.502904E-2],"split_indices":[24,3,3,31,27,0,4,0,0,8,20,14,2,0,0,0,0,0,0,0,0],"split_type":[0,0,0,0,0,0,0,0,0,0,0,0,0,0,0,0,0,0,0,0,0],"sum_hessian":[8.812051E5,4.4922688E5,4.3197825E5,3.9386425E5,5.536262E4,1.8281288E3,4.3015012E5,3.8963144E5,4.232827E3,3.84386E4,1.692402E4,4.2960606E5,5.4404376E2,3.6285957E4,2.152643E3,5.1761743E3,1.1747845E4,4.2958456E5,2.1511572E1,5.0683493E2,3.7208847E1],"tree_param":{"num_deleted":"0","num_feature":"32","num_nodes":"21","size_leaf_vector":"1"}},{"base_weights":[2.9089293E-3,-1.5920326E0,1.6661918E0,-1.6629304E0,-1.3639638E-1,-1.0892825E0,1.6715084E0,-1.666951E0,-7.204347E-1,-1.1686542E0,1.1886592E0,4.845429E-2,-5.0472483E-2,-5.1967587E-2,1.6751082E0,-5.0051972E-2,1.850392E-2,-5.0923765E-2,5.22182E-2,-4.1174114E-2,1.9191682E-2,4.0294174E-2,-1.173099E-2,5.0306097E-2,-5.037906E-2],"categories":[],"categories_nodes":[],"categories_segments":[],"categories_sizes":[],"default_left":[0,0,0,0,0,0,0,0,0,0,0,0,0,0,0,0,0,0,0,0,0,0,0,0,0],"id":7,"left_children":[1,3,5,7,9,11,13,15,17,19,21,-1,-1,-1,23,-1,-1,-1,-1,-1,-1,-1,-1,-1,-1],"loss_changes":[2.3247248E6,4.616675E4,6.286E3,1.61525E3,2.842094E4,1.3287932E3,5.249E3,1.405625E3,4.3641284E3,4.3057324E3,2.2209404E3,0E0,0E0,0E0,2.53025E3,0E0,0E0,0E0,0E0,0E0,0E0,0E0,0E0,0E0,0E0],"parents":[2147483647,0,0,1,1,2,2,3,3,4,4,5,5,6,6,7,7,8,8,9,9,10,10,14,14],"right_children":[2,4,6,8,10,12,14,16,18,20,22,-1,-1,-1,24,-1,-1,-1,-1,-1,-1,-1,-1,-1,-1],"split_conditions":[6.391917E0,5E-1,2.667468E-1,5.7365723E0,5.227269E0,2.3978953E0,4.5601237E-3,1.1139686E1,2.1428572E-1,1.9459101E0,4.1666668E-4,4.845429E-2,-5.0472483E-2,-5.1967587E-2,5.172414E-2,-5.0051972E-2,1.850392E-2,-5.0923765E-2,5.22182E-2,-4.1174114E-2,1.9191682E-2,4.0294174E-2,-1.173099E-2,5.0306097E-2,-5.037906E-2],"split_indices":[27,28,18,27,19,22,4,29,28,27,31,0,0,0,31,0,0,0,0,0,0,0,0,0,0],"split_type":[0,0,0,0,0,0,0,0,0,0,0,0,0,0,0,0,0,0,0,0,0,0,0,0,0],"sum_hessian":[8.763139E5,4.473473E5,4.2896656E5,4.2657075E5,2.077658E4,8.256862E2,4.2814088E5,4.24758E5,1.812757E3,1.1678667E4,9.097912E3,1.482067E2,6.774795E2,4.518117E2,4.2768906E5,4.244891E5,2.688856E2,1.2978325E3,5.149244E2,1.0495944E4,1.1827229E3,8.287606E3,8.103054E2,4.2746506E5,2.2401608E2],"tree_param":{"num_deleted":"0","num_feature":"32","num_nodes":"25","size_leaf_vector":"1"}},{"base_weights":[1.881491E-3,-1.5666565E0,1.6267313E0,-1.587808E0,6.547038E-1,-4.970887E-2,1.6406223E0,-1.6470203E0,-1.1366588E0,-4.9859043E-2,9.758777E-1,1.6442444E0,-4.925302E-2,-4.9397275E-2,-5.0613668E-2,-4.0734265E-2,2.247325E-2,3.9905965E-2,-5.0878957E-2,4.9340732E-2,-5.1318053E-2],"categories":[],"categories_nodes":[],"categories_segments":[],"categories_sizes":[],"default_left":[0,0,0,0,0,0,0,0,0,0,0,0,0,0,0,0,0,0,0,0,0],"id":8,"left_children":[1,3,5,7,9,-1,11,13,15,-1,17,19,-1,-1,-1,-1,-1,-1,-1,-1,-1],"loss_changes":[2.2098518E6,2.073E4,1.942925E4,1.16725E4,3.0983452E3,0E0,5.044875E3,4.1875E0,2.1147477E4,0E0,3.4632078E3,6.37625E2,0E0,0E0,0E0,0E0,0E0,0E0,0E0,0E0,0E0],"parents":[2147483647,0,0,1,1,2,2,3,3,4,4,6,6,7,7,8,8,10,10,11,11],"right_children":[2,4,6,8,10,-1,12,14,16,-1,18,20,-1,-1,-1,-1,-1,-1,-1,-1,-1],"split_conditions":[6.931472E-1,1.7548342E1,9.269741E0,1.0202369E1,3.9318256E0,-4.970887E-2,4.4426513E0,5E-1,4E0,-4.9859043E-2,2.7080503E0,1.81529E0,-4.925302E-2,-4.9397275E-2,-5.0613668E-2,-4.0734265E-2,2.247325E-2,3.9905965E-2,-5.0878957E-2,4.9340732E-2,-5.1318053E-2],"split_indices":[25,3,3,3,20,0,21,31,2,0,21,14,0,0,0,0,0,0,0,0,0],"split_type":[0,0,0,0,0,0,0,0,0,0,0,0,0,0,0,0,0,0,0,0,0],"sum_hessian":[8.670694E5,4.4117962E5,4.2588978E5,4.3701866E5,4.160957E3,1.7935538E3,4.2409622E5,3.863133E5,5.070535E4,5.061138E2,3.6548435E3,4.2362925E5,4.6698444E2,3.821201E5,4.193212E3,4.5383375E4,5.3219775E3,3.2273562E3,4.2748724E2,4.2357338E5,5.588151E1],"tree_param":{"num_deleted":"0","num_feature":"32","num_nodes":"21","size_leaf_vector":"1"}},{"base_weights":[-3.0983589E-3,-1.5415044E0,1.5960646E0,-1.5964276E0,-3.0362418E-1,1.6059786E0,-8.2563514E-1,-1.6072458E0,-4.0670207E-1,-1.2424601E0,1.1392676E0,1.6097809E0,-4.8490252E-2,-1.4231491E0,8.1809354E-1,-4.8308693E-2,-4.055459E-2,-5.000369E-2,4.9058687E-2,-4.1767314E-2,9.910589E-3,-5.033755E-2,3.9326146E-2,1.674543E-2,4.8404496E-2,-4.8886888E-2,5.1165197E-2,4.121093E-2,-4.815003E-2],"categories":[],"categories_nodes":[],"categories_segments":[],"categories_sizes":[],"default_left":[0,0,0,0,0,0,0,0,0,0,0,0,0,0,0,0,0,0,0,0,0,0,0,0,0,0,0,0,0],"id":9,"left_children":[1,3,5,7,9,11,13,15,17,19,21,23,-1,25,27,-1,-1,-1,-1,-1,-1,-1,-1,-1,-1,-1,-1,-1,-1],"loss_changes":[2.1045582E6,2.964325E4,1.0071875E4,5.372625E3,2.509558E4,5.120875E3,1.6814323E3,3.195E2,9.686203E3,2.6443984E3,3.5325732E3,1.6235E3,0E0,8.1330054E2,6.1709784E2,0E0,0E0,0E0,0E0,0E0,0E0,0E0,0E0,0E0,0E0,0E0,0E0,0E0,0E0],"parents":[2147483647,0,0,1,1,2,2,3,3,4,4,5,5,6,6,7,7,8,8,9,9,10,10,11,11,13,13,14,14],"right_children":[2,4,6,8,10,12,14,16,18,20,22,24,-1,26,28,-1,-1,-1,-1,-1,-1,-1,-1,-1,-1,-1,-1,-1,-1],"split_conditions":[1E0,5E-1,1.178655E0,5.7365723E0,5.307218E0,4.173602E0,1.9459101E0,3.3333334E-1,2.1428572E-1,1.9459101E0,3.7612002E0,3.637586E0,-4.8490252E-2,9.837562E0,4.1666668E-4,-4.8308693E-2,-4.055459E-2,-5.000369E-2,4.9058687E-2,-4.1767314E-2,9.910589E-3,-5.033755E-2,3.9326146E-2,1.674543E-2,4.8404496E-2,-4.8886888E-2,5.1165197E-2,4.121093E-2,-4.815003E-2],"split_indices":[24,28,14,27,19,4,0,28,28,27,20,27,0,29,31,0,0,0,0,0,0,0,0,0,0,0,0,0,0],"split_type":[0,0,0,0,0,0,0,0,0,0,0,0,0,0,0,0,0,0,0,0,0,0,0,0,0,0,0,0,0],"sum_hessian":[8.554533E5,4.360093E5,4.19444E5,4.174857E5,1.8523617E4,4.177342E5,1.7098042E3,4.1372334E5,3.7623682E3,1.1222012E4,7.3016064E3,4.1724234E5,4.918401E2,1.2540698E3,4.557344E2,4.0884562E5,4.8776943E3,2.326746E3,1.4356222E3,1.0246337E4,9.756744E2,4.1872412E2,6.8828823E3,1.4643387E3,4.1577803E5,1.1769026E3,7.716728E1,3.7108047E2,8.465393E1],"tree_param":{"num_deleted":"0","num_feature":"32","num_nodes":"29","size_leaf_vector":"1"}},{"base_weights":[-7.949472E-3,-1.5049529E0,1.5732571E0,-1.5867307E0,-9.516312E-1,1.5790147E0,-4.7481768E-2,-1.5862458E0,-4.8913315E-2,-1.4854959E0,1.9832024E-1,-4.889621E-2,1.5824034E0,-4.759608E-2,-4.547686E-2,-4.5552652E-2,3.0663017E-2,-2.684346E-2,3.814518E-2,-4.860171E-2,4.751139E-2],"categories":[],"categories_nodes":[],"categories_segments":[],"categories_sizes":[],"default_left":[0,0,0,0,0,0,0,0,0,0,0,0,0,0,0,0,0,0,0,0,0],"id":10,"left_children":[1,3,5,7,9,11,-1,13,-1,15,17,-1,19,-1,-1,-1,-1,-1,-1,-1,-1],"loss_changes":[1.9941115E6,1.9579875E4,7.4470625E3,5.3125E0,3.421025E4,4.4495E3,0E0,5.3125E0,0E0,3.1436719E3,2.07281E4,0E0,1.716E3,0E0,0E0,0E0,0E0,0E0,0E0,0E0,0E0],"parents":[2147483647,0,0,1,1,2,2,3,3,4,4,5,5,7,7,9,9,10,10,12,12],"right_children":[2,4,6,8,10,12,-1,14,-1,16,18,-1,20,-1,-1,-1,-1,-1,-1,-1,-1],"split_conditions":[6.391917E0,9.699595E0,4.4426513E0,5E-1,1.609438E0,4.5601237E-3,-4.7481768E-2,9.269741E0,-4.8913315E-2,1E0,4.1431346E0,-4.889621E-2,1.1515103E1,-4.759608E-2,-4.547686E-2,-4.5552652E-2,3.0663017E-2,-2.684346E-2,3.814518E-2,-4.860171E-2,4.751139E-2],"split_indices":[27,3,21,31,27,4,0,3,0,24,20,0,3,0,0,0,0,0,0,0,0],"split_type":[0,0,0,0,0,0,0,0,0,0,0,0,0,0,0,0,0,0,0,0,0],"sum_hessian":[8.424362E5,4.3274038E5,4.0969584E5,3.7701744E5,5.572293E4,4.0895028E5,7.455704E2,3.7291738E5,4.100074E3,3.8055418E4,1.7667512E4,4.3090778E2,4.0851938E5,3.7136438E5,1.5529835E3,3.7562598E4,4.9281836E2,8.752622E3,8.91489E3,1.6649353E2,4.0835288E5],"tree_param":{"num_deleted":"0","num_feature":"32","num_nodes":"21","size_leaf_vector":"1"}},{"base_weights":[-3.7660892E-3,-1.4776696E0,1.5463161E0,-1.5451778E0,-1.11711465E-1,1.5519398E0,-4.66684E-2,-1.549259E0,-6.129917E-1,-1.2256118E0,9.126613E-1,-4.7990836E-2,1.5552726E0,-4.6530396E-2,-1.3210592E-2,-4.7196552E-2,4.8197974E-2,-4.010744E-2,3.0021213E-2,3.4649305E-2,-2.734366E-2,4.667514E-2,-6.383446E-2],"categories":[],"categories_nodes":[],"categories_segments":[],"categories_sizes":[],"default_left":[0,0,0,0,0,0,0,0,0,0,0,0,0,0,0,0,0,0,0,0,0,0,0],"id":11,"left_children":[1,3,5,7,9,11,-1,13,15,17,19,-1,21,-1,-1,-1,-1,-1,-1,-1,-1,-1,-1],"loss_changes":[1.9052378E6,3.9417875E4,7.0926875E3,1.548625E3,2.2973025E4,4.264E3,0E0,7.883125E2,3.7902969E3,2.3913516E3,4.6369453E3,0E0,8.473125E2,0E0,0E0,0E0,0E0,0E0,0E0,0E0,0E0,0E0,0E0],"parents":[2147483647,0,0,1,1,2,2,3,3,4,4,5,5,7,7,8,8,9,9,10,10,12,12],"right_children":[2,4,6,8,10,12,-1,14,16,18,20,-1,22,-1,-1,-1,-1,-1,-1,-1,-1,-1,-1],"split_conditions":[6.391917E0,5E-1,4.4426513E0,5.7365723E0,1.3862944E0,4.5601237E-3,-4.66684E-2,1.0003785E1,2.1428572E-1,2.6390574E0,4.1666668E-4,-4.7990836E-2,2.9136863E0,-4.6530396E-2,-1.3210592E-2,-4.7196552E-2,4.8197974E-2,-4.010744E-2,3.0021213E-2,3.4649305E-2,-2.734366E-2,4.667514E-2,-6.383446E-2],"split_indices":[27,28,21,27,0,4,0,30,28,27,31,0,4,0,0,0,0,0,0,0,0,0,0],"split_type":[0,0,0,0,0,0,0,0,0,0,0,0,0,0,0,0,0,0,0,0,0,0,0],"sum_hessian":[8.3391994E5,4.2746384E5,4.064561E5,4.0733256E5,2.013127E4,4.0572103E5,7.3505096E2,4.0555638E5,1.7762019E3,9.644102E3,1.0487168E4,4.280798E2,4.0529297E5,4.0491538E5,6.409831E2,1.2400359E3,5.36166E2,9.18529E3,4.5881082E2,9.257737E3,1.2294303E3,4.0523134E5,6.16274E1],"tree_param":{"num_deleted":"0","num_feature":"32","num_nodes":"23","size_leaf_vector":"1"}},{"base_weights":[8.4844255E-4,-1.4572711E0,1.5154349E0,-1.5144866E0,-2.2075951E-1,-1.5560149E0,1.5284878E0,-1.526626E0,2.6405868E-1,-1.2505376E0,8.8024604E-1,-4.6341468E-2,-5.537996E-2,1.5317653E0,-4.5872897E-2,-4.5880698E-2,-3.887051E-2,-4.6795998E-2,4.643737E-2,-4.7136314E-2,-2.3559643E-2,-5.0338183E-2,3.3830352E-2,4.5961734E-2,-4.9150392E-2],"categories":[],"categories_nodes":[],"categories_segments":[],"categories_sizes":[],"default_left":[0,0,0,0,0,0,0,0,0,0,0,0,0,0,0,0,0,0,0,0,0,0,0,0,0],"id":12,"left_children":[1,3,5,7,9,11,13,15,17,19,21,-1,-1,23,-1,-1,-1,-1,-1,-1,-1,-1,-1,-1,-1],"loss_changes":[1.8232271E6,2.9757938E4,1.6237125E4,8.680375E3,2.1093555E4,2.7646484E0,4.04325E3,2.498125E2,6.3863657E3,1.4328672E3,5.6932383E3,0E0,0E0,3.760625E2,0E0,0E0,0E0,0E0,0E0,0E0,0E0,0E0,0E0,0E0,0E0],"parents":[2147483647,0,0,1,1,2,2,3,3,4,4,5,5,6,6,7,7,8,8,9,9,10,10,13,13],"right_children":[2,4,6,8,10,12,14,16,18,20,22,-1,-1,24,-1,-1,-1,-1,-1,-1,-1,-1,-1,-1,-1],"split_conditions":[6.931472E-1,5E-1,9.269741E0,1.7548342E1,1.609438E0,4.4444445E-1,4.4426513E0,3.3333334E-1,2.1428572E-1,1.1515103E1,1.0202369E1,-4.6341468E-2,-5.537996E-2,1.9636097E0,-4.5872897E-2,-4.5880698E-2,-3.887051E-2,-4.6795998E-2,4.643737E-2,-4.7136314E-2,-2.3559643E-2,-5.0338183E-2,3.3830352E-2,4.5961734E-2,-4.9150392E-2],"split_indices":[25,28,3,3,27,28,21,28,28,3,3,0,0,14,0,0,0,0,0,0,0,0,0,0,0],"split_type":[0,0,0,0,0,0,0,0,0,0,0,0,0,0,0,0,0,0,0,0,0,0,0,0,0],"sum_hessian":[8.2556744E5,4.2062462E5,4.0494284E5,4.0202216E5,1.8602467E4,1.7131244E3,4.0322972E5,3.992969E5,2.7252583E3,9.612083E3,8.990384E3,1.6549648E3,5.8159557E1,4.0279844E5,4.3128146E2,3.9462528E5,4.671623E3,1.1257418E3,1.5995164E3,5.6885767E3,3.9235066E3,7.923679E2,8.198017E3,4.0276178E5,3.6642365E1],"tree_param":{"num_deleted":"0","num_feature":"32","num_nodes":"25","size_leaf_vector":"1"}},{"base_weights":[-3.962338E-3,-1.4354037E0,1.4914542E0,-1.5105124E0,-9.10563E-1,-4.5928124E-2,1.504481E0,-4.5302108E-2,-4.6506498E-2,-1.4193304E0,2.2153004E-1,1.5079659E0,-1.2517207E0,-4.4342764E-2,-1.4636576E-2,-3.9917275E-2,2.641418E-2,-5.1352326E-2,4.52439E-2,-4.5646805E-2,6.0239833E-2],"categories":[],"categories_nodes":[],"categories_segments":[],"categories_sizes":[],"default_left":[0,0,0,0,0,0,0,0,0,0,0,0,0,0,0,0,0,0,0,0,0],"id":13,"left_children":[1,3,5,7,9,-1,11,-1,-1,13,15,17,19,-1,-1,-1,-1,-1,-1,-1,-1],"loss_changes":[1.7364225E6,1.63365625E4,1.562225E4,4.125E0,2.988702E4,0E0,3.7961875E3,0E0,0E0,1.95875E3,1.6456879E4,2.110625E2,4.4231085E2,0E0,0E0,0E0,0E0,0E0,0E0,0E0,0E0],"parents":[2147483647,0,0,1,1,2,2,3,3,4,4,6,6,9,9,10,10,11,11,12,12],"right_children":[2,4,6,8,10,-1,12,-1,-1,14,16,18,20,-1,-1,-1,-1,-1,-1,-1,-1],"split_conditions":[1E0,1.0202369E1,9.269741E0,5E-1,1.609438E0,-4.5928124E-2,4.173602E0,-4.5302108E-2,-4.6506498E-2,1E0,3.871201E0,1.6739123E-3,6E0,-4.4342764E-2,-1.4636576E-2,-3.9917275E-2,2.641418E-2,-5.1352326E-2,4.52439E-2,-4.5646805E-2,6.0239833E-2],"split_indices":[24,3,3,31,27,0,4,0,0,8,20,4,2,0,0,0,0,0,0,0,0],"split_type":[0,0,0,0,0,0,0,0,0,0,0,0,0,0,0,0,0,0,0,0,0],"sum_hessian":[8.111825E5,4.144567E5,3.9672584E5,3.6256853E5,5.188816E4,1.7020801E3,3.9502375E5,3.5861484E5,3.953665E3,3.5799473E4,1.60886875E4,3.9452538E5,4.98381E2,3.3674477E4,2.1249988E3,4.7944907E3,1.1294197E4,1.9583632E1,3.9450578E5,4.607715E2,3.7609493E1],"tree_param":{"num_deleted":"0","num_feature":"32","num_nodes":"21","size_leaf_vector":"1"}},{"base_weights":[-8.132937E-4,-1.4076148E0,1.4746592E0,-1.4858661E0,-8.6193794E-1,1.478481E0,-1.560614E0,-1.4878755E0,-1.2770283E0,-1.3745764E0,3.0398375E-1,-4.5440048E-2,1.4818865E0,-6.1053064E-2,-4.4475537E-2,-4.462353E-2,-4.578257E-2,-4.4875134E-2,-7.903745E-3,-4.347417E-2,-9.3202945E-3,3.384108E-2,-3.0437328E-2,-4.6795033E-2,4.455628E-2],"categories":[],"categories_nodes":[],"categories_segments":[],"categories_sizes":[],"default_left":[0,0,0,0,0,0,0,0,0,0,0,0,0,0,0,0,0,0,0,0,0,0,0,0,0],"id":14,"left_children":[1,3,5,7,9,11,13,15,17,19,21,-1,23,-1,-1,-1,-1,-1,-1,-1,-1,-1,-1,-1,-1],"loss_changes":[1.6632942E6,1.7514375E4,4.5393125E3,1.4875E2,3.0751344E4,3.9838125E3,1.5226685E1,3.375E0,7.5940137E2,2.8344375E3,1.7074924E4,0E0,3.9459375E3,0E0,0E0,0E0,0E0,0E0,0E0,0E0,0E0,0E0,0E0,0E0,0E0],"parents":[2147483647,0,0,1,1,2,2,3,3,4,4,5,5,6,6,7,7,8,8,9,9,10,10,12,12],"right_children":[2,4,6,8,10,12,14,16,18,20,22,-1,24,-1,-1,-1,-1,-1,-1,-1,-1,-1,-1,-1,-1],"split_conditions":[6.391917E0,1.0202369E1,2.9136863E0,9.269741E0,1.609438E0,1.1515103E1,6.931472E-1,5E-1,4.248495E0,1E0,1E0,-4.5440048E-2,4.5601237E-3,-6.1053064E-2,-4.4475537E-2,-4.462353E-2,-4.578257E-2,-4.4875134E-2,-7.903745E-3,-4.347417E-2,-9.3202945E-3,3.384108E-2,-3.0437328E-2,-4.6795033E-2,4.455628E-2],"split_indices":[27,3,4,3,27,3,1,31,20,8,6,0,4,0,0,0,0,0,0,0,0,0,0,0,0],"split_type":[0,0,0,0,0,0,0,0,0,0,0,0,0,0,0,0,0,0,0,0,0,0,0,0,0],"sum_hessian":[8.013164E5,4.10204E5,3.9111238E5,3.5875594E5,5.1448082E4,3.9062106E5,4.9133075E2,3.55331E5,3.424917E3,3.5735523E4,1.571256E4,4.4341794E2,3.9017762E5,6.5897575E1,4.2543317E2,3.5146778E5,3.863247E3,2.8164304E3,6.084867E2,3.3394715E4,2.3408093E3,9.669575E3,6.042984E3,4.252684E2,3.8975238E5],"tree_param":{"num_deleted":"0","num_feature":"32","num_nodes":"25","size_leaf_vector":"1"}},{"base_weights":[-2.8886409E-3,-1.3844967E0,1.453659E0,-1.4412798E0,1.6304451E-1,1.4589292E0,-4.3871608E-2,-1.4568943E0,-9.494288E-1,-1.1874764E0,1.0165645E0,-4.6022967E-2,1.4621897E0,-4.3747567E-2,-1.17214685E-2,-4.0916182E-2,2.6085788E-2,-3.7951168E-2,3.096556E-2,3.3373244E-2,-4.026719E-2,4.3882534E-2,-5.907034E-2],"categories":[],"categories_nodes":[],"categories_segments":[],"categories_sizes":[],"default_left":[0,0,0,0,0,0,0,0,0,0,0,0,0,0,0,0,0,0,0,0,0,0,0],"id":15,"left_children":[1,3,5,7,9,11,-1,13,15,17,19,-1,21,-1,-1,-1,-1,-1,-1,-1,-1,-1,-1],"loss_changes":[1.584785E6,3.5515125E4,5.893625E3,2.9926875E3,1.6491102E4,3.736625E3,0E0,5.465625E2,9.04625E3,9.551377E2,1.9840166E3,0E0,7.393125E2,0E0,0E0,0E0,0E0,0E0,0E0,0E0,0E0,0E0,0E0],"parents":[2147483647,0,0,1,1,2,2,3,3,4,4,5,5,7,7,8,8,9,9,10,10,12,12],"right_children":[2,4,6,8,10,12,-1,14,16,18,20,-1,22,-1,-1,-1,-1,-1,-1,-1,-1,-1,-1],"split_conditions":[6.391917E0,1E0,4.4426513E0,2.7272728E-1,1.3862944E0,4.5601237E-3,-4.3871608E-2,7.1E1,2.5649493E0,5.182299E0,1.4136933E0,-4.6022967E-2,2.9136863E0,-4.3747567E-2,-1.17214685E-2,-4.0916182E-2,2.6085788E-2,-3.7951168E-2,3.096556E-2,3.3373244E-2,-4.026719E-2,4.3882534E-2,-5.907034E-2],"split_indices":[27,28,21,28,27,4,0,2,27,19,14,0,4,0,0,0,0,0,0,0,0,0,0],"split_type":[0,0,0,0,0,0,0,0,0,0,0,0,0,0,0,0,0,0,0,0,0,0,0],"sum_hessian":[7.8751656E5,4.0415522E5,3.833613E5,3.8985072E5,1.4304496E4,3.8267022E5,6.9108905E2,3.778533E5,1.1997415E4,5.5392974E3,8.765198E3,4.1591022E2,3.822543E5,3.7737225E5,4.8105392E2,9.771301E3,2.226114E3,5.3526865E3,1.8661116E2,8.423347E3,3.4185117E2,3.8219234E5,6.196287E1],"tree_param":{"num_deleted":"0","num_feature":"32","num_nodes":"23","size_leaf_vector":"1"}},{"base_weights":[1.9235478E-3,-1.3699292E0,1.4286942E0,-1.4289279E0,-1.5384245E-1,-1.4642721E0,1.4409796E0,-1.4385417E0,1.2240004E-1,-1.0305867E0,1.0031245E0,-4.3641075E-2,-5.104726E-2,1.4440687E0,-4.3244388E-2,-4.326137E-2,-3.4436014E-2,-4.4426393E-2,4.4094507E-2,-4.4644143E-2,-1.3897353E-2,-3.9977014E-2,3.517926E-2,4.3330994E-2,-4.7132153E-2],"categories":[],"categories_nodes":[],"categories_segments":[],"categories_sizes":[],"default_left":[0,0,0,0,0,0,0,0,0,0,0,0,0,0,0,0,0,0,0,0,0,0,0,0,0],"id":16,"left_children":[1,3,5,7,9,11,13,15,17,19,21,-1,-1,23,-1,-1,-1,-1,-1,-1,-1,-1,-1,-1,-1],"loss_changes":[1.5202378E6,2.8409438E4,1.35334375E4,5.6325E3,1.8586896E4,1.1821289E0,3.377875E3,3.80625E2,5.02881E3,2.7052979E3,3.1293052E3,0E0,0E0,3.42375E2,0E0,0E0,0E0,0E0,0E0,0E0,0E0,0E0,0E0,0E0,0E0],"parents":[2147483647,0,0,1,1,2,2,3,3,4,4,5,5,6,6,7,7,8,8,9,9,10,10,13,13],"right_children":[2,4,6,8,10,12,14,16,18,20,22,-1,-1,24,-1,-1,-1,-1,-1,-1,-1,-1,-1,-1,-1],"split_conditions":[1E0,5E-1,9.269741E0,1.7548342E1,5.227269E0,4.4444445E-1,4.4426513E0,3.3333334E-1,2.1428572E-1,1.1515103E1,3.7612002E0,-4.3641075E-2,-5.104726E-2,1.9636097E0,-4.3244388E-2,-4.326137E-2,-3.4436014E-2,-4.4426393E-2,4.4094507E-2,-4.4644143E-2,-1.3897353E-2,-3.9977014E-2,3.517926E-2,4.3330994E-2,-4.7132153E-2],"split_indices":[24,28,3,3,19,28,21,28,28,3,20,0,0,14,0,0,0,0,0,0,0,0,0,0,0],"split_type":[0,0,0,0,0,0,0,0,0,0,0,0,0,0,0,0,0,0,0,0,0,0,0,0,0],"sum_hessian":[7.766918E5,3.959665E5,3.8072528E5,3.7764484E5,1.8321676E4,1.6094489E3,3.7911584E5,3.75319E5,2.325837E3,1.042316E4,7.898515E3,1.5539154E3,5.5533447E1,3.7871047E5,4.05358E2,3.7084444E5,4.474551E3,1.0620333E3,1.2638035E3,5.7689644E3,4.654196E3,5.339973E2,7.3645176E3,3.786736E5,3.6888638E1],"tree_param":{"num_deleted":"0","num_feature":"32","num_nodes":"25","size_leaf_vector":"1"}},{"base_weights":[-1.0494109E-3,-1.3529778E0,1.415059E0,-1.4149319E0,-1.2638202E-1,1.4201303E0,-4.2707562E-2,-1.419439E0,-9.389947E-2,-1.1150837E0,8.443349E-1,-4.4634804E-2,1.423316E0,-4.2664386E-2,-3.5855707E-2,-4.3375302E-2,4.490749E-2,-4.3843936E-2,-1.9819833E-2,-4.659999E-2,3.143543E-2,-4.616299E-2,4.2737972E-2],"categories":[],"categories_nodes":[],"categories_segments":[],"categories_sizes":[],"default_left":[0,0,0,0,0,0,0,0,0,0,0,0,0,0,0,0,0,0,0,0,0,0,0],"id":17,"left_children":[1,3,5,7,9,11,-1,13,15,17,19,-1,21,-1,-1,-1,-1,-1,-1,-1,-1,-1,-1],"loss_changes":[1.4604539E6,2.9657312E4,5.3655625E3,2.2118125E3,1.8010975E4,3.4475625E3,0E0,2.23125E2,2.7211865E3,1.4624092E3,4.622261E3,0E0,1.4141875E3,0E0,0E0,0E0,0E0,0E0,0E0,0E0,0E0,0E0,0E0],"parents":[2147483647,0,0,1,1,2,2,3,3,4,4,5,5,7,7,8,8,9,9,10,10,12,12],"right_children":[2,4,6,8,10,12,-1,14,16,18,20,-1,22,-1,-1,-1,-1,-1,-1,-1,-1,-1,-1],"split_conditions":[6.391917E0,5E-1,4.4426513E0,1.7548342E1,1.609438E0,4.5601237E-3,-4.2707562E-2,3.3333334E-1,2.1428572E-1,9.699595E0,9.269741E0,-4.4634804E-2,1.1515103E1,-4.2664386E-2,-3.5855707E-2,-4.3375302E-2,4.490749E-2,-4.3843936E-2,-1.9819833E-2,-4.659999E-2,3.143543E-2,-4.616299E-2,4.2737972E-2],"split_indices":[27,28,21,3,27,4,0,28,28,3,3,0,3,0,0,0,0,0,0,0,0,0,0],"split_type":[0,0,0,0,0,0,0,0,0,0,0,0,0,0,0,0,0,0,0,0,0,0,0],"sum_hessian":[7.628455E5,3.902665E5,3.7257903E5,3.7150216E5,1.876435E4,3.719151E5,6.6392426E2,3.702389E5,1.2632533E3,9.295985E3,9.468363E3,4.0649106E2,3.715086E5,3.6581722E5,4.4216885E3,6.829468E2,5.803065E2,5.2738276E3,4.022158E3,7.4027277E2,8.728091E3,1.603433E2,3.7134825E5],"tree_param":{"num_deleted":"0","num_feature":"32","num_nodes":"23","size_leaf_vector":"1"}},{"base_weights":[9.1567903E-4,-1.3363752E0,1.3925333E0,-4.230338E-2,-8.3070606E-1,-4.280696E-2,1.4045454E0,-1.3365786E0,2.3751004E-1,1.4075094E0,-4.2140707E-2,-4.1797064E-2,-1.4312551E-2,-3.4868762E-2,2.5660558E-2,4.223844E-2,-4.6765603E-2],"categories":[],"categories_nodes":[],"categories_segments":[],"categories_sizes":[],"default_left":[0,0,0,0,0,0,0,0,0,0,0,0,0,0,0,0,0],"id":18,"left_children":[1,3,5,-1,7,-1,9,11,13,15,-1,-1,-1,-1,-1,-1,-1],"loss_changes":[1.3963416E6,1.4265875E4,1.245475E4,0E0,2.6315324E4,0E0,3.0505625E3,1.6086172E3,1.3536757E4,4.779375E2,0E0,0E0,0E0,0E0,0E0,0E0,0E0],"parents":[2147483647,0,0,1,1,2,2,4,4,6,6,7,7,8,8,9,9],"right_children":[2,4,6,-1,8,-1,10,12,14,16,-1,-1,-1,-1,-1,-1,-1],"split_conditions":[1E0,1.0202369E1,9.699595E0,-4.230338E-2,1.609438E0,-4.280696E-2,4.4426513E0,1E0,3.8918202E0,1.9459101E0,-4.2140707E-2,-4.1797064E-2,-1.4312551E-2,-3.4868762E-2,2.5660558E-2,4.223844E-2,-4.6765603E-2],"split_indices":[24,3,3,0,27,0,21,8,20,14,0,0,0,0,0,0,0],"split_type":[0,0,0,0,0,0,0,0,0,0,0,0,0,0,0,0,0],"sum_hessian":[7.503168E5,3.82627E5,3.6768978E5,3.3393088E5,4.8696117E4,1.5593938E3,3.6613038E5,3.304624E4,1.5649878E4,3.65745E5,3.8539398E2,3.1001996E4,2.0442404E3,4.7920273E3,1.0857851E4,3.6569147E5,5.3537777E1],"tree_param":{"num_deleted":"0","num_feature":"32","num_nodes":"17","size_leaf_vector":"1"}},{"base_weights":[2.6049726E-3,-1.3148843E0,1.380294E0,-1.3784224E0,-9.113499E-2,1.3852559E0,-4.166787E-2,-1.3825649E0,-4.726077E-1,-9.306232E-1,9.673243E-1,1.3858764E0,-4.506452E-2,-4.1510478E-2,1.4677872E-2,-4.209199E-2,4.3994617E-2,-3.364172E-2,1.7684026E-2,3.3179484E-2,-9.069053E-3,-1.0597977E-2,4.1587874E-2],"categories":[],"categories_nodes":[],"categories_segments":[],"categories_sizes":[],"default_left":[0,0,0,0,0,0,0,0,0,0,0,0,0,0,0,0,0,0,0,0,0,0,0],"id":19,"left_children":[1,3,5,7,9,11,-1,13,15,17,19,21,-1,-1,-1,-1,-1,-1,-1,-1,-1,-1,-1],"loss_changes":[1.3402445E6,2.9347688E4,4.961625E3,1.34575E3,1.6555615E4,6.475E2,0E0,7.479375E2,2.9519895E3,3.013792E3,1.4511465E3,2.424375E2,0E0,0E0,0E0,0E0,0E0,0E0,0E0,0E0,0E0,0E0,0E0],"parents":[2147483647,0,0,1,1,2,2,3,3,4,4,5,5,7,7,8,8,9,9,10,10,11,11],"right_children":[2,4,6,8,10,12,-1,14,16,18,20,22,-1,-1,-1,-1,-1,-1,-1,-1,-1,-1,-1],"split_conditions":[6.391917E0,5E-1,4.4426513E0,5.7365723E0,5.227269E0,1.4136933E0,-4.166787E-2,1.1139686E1,2.1428572E-1,1.9459101E0,4.1666668E-4,3.8918202E0,-4.506452E-2,-4.1510478E-2,1.4677872E-2,-4.209199E-2,4.3994617E-2,-3.364172E-2,1.7684026E-2,3.3179484E-2,-9.069053E-3,-1.0597977E-2,4.1587874E-2],"split_indices":[27,28,21,27,19,14,0,29,28,27,31,20,0,0,0,0,0,0,0,0,0,0,0],"split_type":[0,0,0,0,0,0,0,0,0,0,0,0,0,0,0,0,0,0,0,0,0,0,0],"sum_hessian":[7.383879E5,3.774403E5,3.6094756E5,3.5881047E5,1.8629863E4,3.6030247E5,6.4509607E2,3.5717647E5,1.6339926E3,1.03896875E4,8.240177E3,3.602256E5,7.6883156E1,3.5696356E5,2.1289279E2,1.104354E3,5.296387E2,9.23143E3,1.1582579E3,7.4289727E3,8.1120416E2,7.9763954E1,3.601458E5],"tree_param":{"num_deleted":"0","num_feature":"32","num_nodes":"23","size_leaf_vector":"1"}},{"base_weights":[-3.0595227E-3,-1.3042998E0,1.3598927E0,-1.3579496E0,-1.9753343E-1,-1.3918614E0,1.3716198E0,-1.3683861E0,1.8388274E-1,-1.0037004E0,8.96013E-1,-4.150082E-2,-4.7718007E-2,1.3746278E0,-4.115807E-2,-4.1175675E-2,-3.1008914E-2,-4.2917393E-2,4.2045515E-2,-4.2502552E-2,-1.4796287E-2,-4.5651533E-2,3.2181073E-2,4.124697E-2,-4.45792E-2],"categories":[],"categories_nodes":[],"categories_segments":[],"categories_sizes":[],"default_left":[0,0,0,0,0,0,0,0,0,0,0,0,0,0,0,0,0,0,0,0,0,0,0,0,0],"id":20,"left_children":[1,3,5,7,9,11,13,15,17,19,21,-1,-1,23,-1,-1,-1,-1,-1,-1,-1,-1,-1,-1,-1],"loss_changes":[1.2809994E6,2.1940438E4,1.1386E4,5.67125E3,1.5062545E4,3.2983398E-1,2.9009375E3,4.833125E2,4.661781E3,2.073126E3,3.0990327E3,0E0,0E0,2.741875E2,0E0,0E0,0E0,0E0,0E0,0E0,0E0,0E0,0E0,0E0,0E0],"parents":[2147483647,0,0,1,1,2,2,3,3,4,4,5,5,6,6,7,7,8,8,9,9,10,10,13,13],"right_children":[2,4,6,8,10,12,14,16,18,20,22,-1,-1,24,-1,-1,-1,-1,-1,-1,-1,-1,-1,-1,-1],"split_conditions":[1E0,5E-1,9.269741E0,1.7548342E1,5.227269E0,4.4444445E-1,4.4426513E0,3.3333334E-1,2.1428572E-1,1.1515103E1,3.7612002E0,-4.150082E-2,-4.7718007E-2,1.9636097E0,-4.115807E-2,-4.1175675E-2,-3.1008914E-2,-4.2917393E-2,4.2045515E-2,-4.2502552E-2,-1.4796287E-2,-4.5651533E-2,3.2181073E-2,4.124697E-2,-4.45792E-2],"split_indices":[24,28,3,3,19,28,21,28,28,3,20,0,0,14,0,0,0,0,0,0,0,0,0,0,0],"split_type":[0,0,0,0,0,0,0,0,0,0,0,0,0,0,0,0,0,0,0,0,0,0,0,0,0],"sum_hessian":[7.222866E5,3.695087E5,3.5277794E5,3.5242488E5,1.7083812E4,1.4965353E3,3.512814E5,3.5005547E5,2.3693918E3,9.834132E3,7.2496807E3,1.4427831E3,5.3752117E1,3.508972E5,3.8423035E2,3.4577988E5,4.2755913E3,1.0186234E3,1.3507686E3,5.4348657E3,4.3992666E3,4.932111E2,6.7564697E3,3.5086444E5,3.2738052E1],"tree_param":{"num_deleted":"0","num_feature":"32","num_nodes":"25","size_leaf_vector":"1"}},{"base_weights":[3.00297E-3,-1.2885695E0,1.3449404E0,-1.3621272E0,-7.897496E-1,-4.1277234E-2,1.356484E0,-4.0846355E-2,-4.173529E-2,-1.2802407E0,2.273008E-1,1.3594161E0,-4.070177E-2,-4.0307734E-2,-1.0900521E-2,2.5837699E-2,-2.6264219E-2,-5.6919206E-2,4.0794265E-2],"categories":[],"categories_nodes":[],"categories_segments":[],"categories_sizes":[],"default_left":[0,0,0,0,0,0,0,0,0,0,0,0,0,0,0,0,0,0,0],"id":21,"left_children":[1,3,5,7,9,-1,11,-1,-1,13,15,17,-1,-1,-1,-1,-1,-1,-1],"loss_changes":[1.2333182E6,1.330325E4,1.09629375E4,3.4375E0,2.3247049E4,0E0,2.7665E3,0E0,0E0,1.8256406E3,1.060112E4,4.464375E2,0E0,0E0,0E0,0E0,0E0,0E0,0E0],"parents":[2147483647,0,0,1,1,2,2,3,3,4,4,6,6,9,9,10,10,11,11],"right_children":[2,4,6,8,10,-1,12,-1,-1,14,16,18,-1,-1,-1,-1,-1,-1,-1],"split_conditions":[1E0,1.0202369E1,9.269741E0,3.3333334E-1,1.609438E0,-4.1277234E-2,4.4426513E0,-4.0846355E-2,-4.173529E-2,1E0,1E0,1.6161151E-2,-4.070177E-2,-4.0307734E-2,-1.0900521E-2,2.5837699E-2,-2.6264219E-2,-5.6919206E-2,4.0794265E-2],"split_indices":[24,3,3,31,27,0,21,0,0,8,6,4,0,0,0,0,0,0,0],"split_type":[0,0,0,0,0,0,0,0,0,0,0,0,0,0,0,0,0,0,0],"sum_hessian":[7.115786E5,3.625937E5,3.4898494E5,3.1599434E5,4.6599324E4,1.4738602E3,3.4751106E5,3.098348E5,6.1595415E3,3.1437676E4,1.5161647E4,3.471364E5,3.7464658E2,2.94055E4,2.0321754E3,9.627355E3,5.5342915E3,4.1266422E1,3.4709516E5],"tree_param":{"num_deleted":"0","num_feature":"32","num_nodes":"19","size_leaf_vector":"1"}},{"base_weights":[-2.6399907E-4,-1.2703104E0,1.3304363E0,-1.346378E0,-7.3958343E-1,-4.0821552E-2,1.3420599E0,-1.3476267E0,-1.1145099E0,-1.2158444E0,4.9300098E-1,4.402045E-1,1.3450212E0,-4.0412374E-2,-4.1252613E-2,-4.2799056E-2,-4.100123E-3,-3.807509E-2,4.6726842E-3,2.909068E-2,-1.8949902E-2,-4.111637E-2,4.3004986E-2,7.990983E-3,4.0366314E-2],"categories":[],"categories_nodes":[],"categories_segments":[],"categories_sizes":[],"default_left":[0,0,0,0,0,0,0,0,0,0,0,0,0,0,0,0,0,0,0,0,0,0,0,0,0],"id":22,"left_children":[1,3,5,7,9,-1,11,13,15,17,19,21,23,-1,-1,-1,-1,-1,-1,-1,-1,-1,-1,-1,-1],"loss_changes":[1.1766042E6,1.43798125E4,1.06365625E4,8.86875E1,2.6215848E4,0E0,9.035625E2,2.75E0,5.1090137E2,2.356168E3,6.673545E3,1.9973971E3,1.898125E2,0E0,0E0,0E0,0E0,0E0,0E0,0E0,0E0,0E0,0E0,0E0,0E0],"parents":[2147483647,0,0,1,1,2,2,3,3,4,4,6,6,7,7,8,8,9,9,10,10,11,11,12,12],"right_children":[2,4,6,8,10,-1,12,14,16,18,20,22,24,-1,-1,-1,-1,-1,-1,-1,-1,-1,-1,-1,-1],"split_conditions":[1E0,1.1515103E1,9.269741E0,1.0202369E1,1.7917595E0,-4.0821552E-2,2.1353357E-1,3.3333334E-1,5.4716086E0,5.3460846E0,1E0,2E0,1.609438E0,-4.0412374E-2,-4.1252613E-2,-4.2799056E-2,-4.100123E-3,-3.807509E-2,4.6726842E-3,2.909068E-2,-1.8949902E-2,-4.111637E-2,4.3004986E-2,7.990983E-3,4.0366314E-2],"split_indices":[24,3,3,3,27,0,18,31,19,19,6,2,27,0,0,0,0,0,0,0,0,0,0,0,0],"split_type":[0,0,0,0,0,0,0,0,0,0,0,0,0,0,0,0,0,0,0,0,0,0,0,0,0],"sum_hessian":[6.9619244E5,3.5621444E5,3.3997797E5,3.1155816E5,4.465627E4,1.4615997E3,3.3851638E5,3.098846E5,1.6735817E3,3.2210424E4,1.2445844E4,1.1084308E3,3.3740794E5,3.0387594E5,6.0086616E3,1.2682867E3,4.0529498E2,3.100508E4,1.2053438E3,8.74108E3,3.7047642E3,3.9251205E2,7.159187E2,1.6362848E2,3.372443E5],"tree_param":{"num_deleted":"0","num_feature":"32","num_nodes":"25","size_leaf_vector":"1"}},{"base_weights":[-1.1597344E-3,-1.2584151E0,1.3168826E0,-1.3338565E0,-7.545988E-1,-4.0387906E-2,1.3282918E0,-3.9999902E-2,-4.0798664E-2,-1.2447779E0,2.2862634E-1,1.3315277E0,-1.3599153E0,-3.808602E-2,4.310273E-3,-3.2189038E-2,2.3667272E-2,3.9953154E-2,-4.424708E-2,-4.9413335E-2,-3.9853968E-2],"categories":[],"categories_nodes":[],"categories_segments":[],"categories_sizes":[],"default_left":[0,0,0,0,0,0,0,0,0,0,0,0,0,0,0,0,0,0,0,0,0],"id":23,"left_children":[1,3,5,7,9,-1,11,-1,-1,13,15,17,19,-1,-1,-1,-1,-1,-1,-1,-1],"loss_changes":[1.1317216E6,1.3284375E4,1.01323125E4,2.3125E0,2.1941271E4,0E0,2.88975E3,0E0,0E0,1.0444102E3,1.1046421E4,2.2925E2,1.4216309E0,0E0,0E0,0E0,0E0,0E0,0E0,0E0,0E0],"parents":[2147483647,0,0,1,1,2,2,3,3,4,4,6,6,9,9,10,10,11,11,12,12],"right_children":[2,4,6,8,10,-1,12,-1,-1,14,16,18,20,-1,-1,-1,-1,-1,-1,-1,-1],"split_conditions":[1E0,1.0202369E1,9.269741E0,3.3333334E-1,1.609438E0,-4.0387906E-2,4.173602E0,-3.9999902E-2,-4.0798664E-2,5.307218E0,3.8918202E0,1.9459101E0,3.5553482E0,-3.808602E-2,4.310273E-3,-3.2189038E-2,2.3667272E-2,3.9953154E-2,-4.424708E-2,-4.9413335E-2,-3.9853968E-2],"split_indices":[24,3,3,31,27,0,4,0,0,19,20,14,21,0,0,0,0,0,0,0,0],"split_type":[0,0,0,0,0,0,0,0,0,0,0,0,0,0,0,0,0,0,0,0,0],"sum_hessian":[6.8294456E5,3.4953238E5,3.334122E5,3.0400853E5,4.5523836E4,1.421767E3,3.3199044E5,2.9804978E5,5.9587495E3,3.0378572E4,1.5145263E4,3.3159178E5,3.9865158E2,2.9846496E4,5.320766E2,4.5572915E3,1.0587971E4,3.3156347E5,2.8326462E1,3.427567E1,3.6437592E2],"tree_param":{"num_deleted":"0","num_feature":"32","num_nodes":"21","size_leaf_vector":"1"}},{"base_weights":[6.3708853E-3,-1.2469208E0,1.3042651E0,-1.300488E0,-1.6823089E-1,-3.9977696E-2,1.3154172E0,-1.3104008E0,1.471026E-1,-1.0498444E0,6.618693E-1,1.318199E0,-3.945764E-2,-3.9443117E-2,-2.8892672E-2,-4.213051E-2,4.0532947E-2,-3.434551E-2,2.5218213E-2,-4.2961903E-2,2.710887E-2,1.4835369E-2,3.95644E-2],"categories":[],"categories_nodes":[],"categories_segments":[],"categories_sizes":[],"default_left":[0,0,0,0,0,0,0,0,0,0,0,0,0,0,0,0,0,0,0,0,0,0,0],"id":24,"left_children":[1,3,5,7,9,-1,11,13,15,17,19,21,-1,-1,-1,-1,-1,-1,-1,-1,-1,-1,-1],"loss_changes":[1.0942646E6,1.9775125E4,9.719875E3,4.67875E3,1.1850759E4,0E0,2.4099375E3,4.903125E2,4.145778E3,1.4113857E3,4.223485E3,1.6575E2,0E0,0E0,0E0,0E0,0E0,0E0,0E0,0E0,0E0,0E0,0E0],"parents":[2147483647,0,0,1,1,2,2,3,3,4,4,6,6,7,7,8,8,9,9,10,10,11,11],"right_children":[2,4,6,8,10,-1,12,14,16,18,20,22,-1,-1,-1,-1,-1,-1,-1,-1,-1,-1,-1],"split_conditions":[1E0,5E-1,9.269741E0,1.7548342E1,1.3862944E0,-3.9977696E-2,4.4426513E0,3.3333334E-1,2.1428572E-1,2.6390574E0,1.0202369E1,1.3862944E0,-3.945764E-2,-3.9443117E-2,-2.8892672E-2,-4.213051E-2,4.0532947E-2,-3.434551E-2,2.5218213E-2,-4.2961903E-2,2.710887E-2,1.4835369E-2,3.95644E-2],"split_indices":[24,28,3,3,0,0,21,28,28,27,3,27,0,0,0,0,0,0,0,0,0,0,0],"split_type":[0,0,0,0,0,0,0,0,0,0,0,0,0,0,0,0,0,0,0,0,0,0,0],"sum_hessian":[6.7271256E5,3.4223684E5,3.3047572E5,3.260454E5,1.6191429E4,1.391294E3,3.2908444E5,3.23828E5,2.2174194E3,7.8519487E3,8.3394795E3,3.287373E5,3.471214E2,3.1980153E5,4.0264592E3,9.688307E2,1.2485889E3,7.476601E3,3.753474E2,8.626824E2,7.4767974E3,2.4564622E2,3.2849166E5],"tree_param":{"num_deleted":"0","num_feature":"32","num_nodes":"23","size_leaf_vector":"1"}},{"base_weights":[-2.7639272E-3,-1.2336695E0,1.2915503E0,-1.2893357E0,-1.4443031E-1,1.301082E0,-3.3195585E-1,-1.3027184E0,-9.679456E-1,-1.0604122E0,6.776547E-1,1.3041668E0,-1.3244855E0,-1.239855E0,1.3369367E0,-3.9094515E-2,-2.2498865E-2,-3.7712E-2,1.719266E-2,-3.6516428E-2,-6.3308217E-3,-4.0618397E-2,2.6898744E-2,3.9156783E-2,-8.000923E-5,-3.9110202E-2,-5.4946505E-2,-4.024511E-2,9.244609E-3,-3.7281185E-2,4.0639937E-2],"categories":[],"categories_nodes":[],"categories_segments":[],"categories_sizes":[],"default_left":[0,0,0,0,0,0,0,0,0,0,0,0,0,0,0,0,0,0,0,0,0,0,0,0,0,0,0,0,0,0,0],"id":25,"left_children":[1,3,5,7,9,11,13,15,17,19,21,23,25,27,29,-1,-1,-1,-1,-1,-1,-1,-1,-1,-1,-1,-1,-1,-1,-1,-1],"loss_changes":[1.0438033E6,2.0361312E4,4.9424375E3,1.372875E3,1.229633E4,2.57325E3,2.827253E3,7.228125E1,5.6927275E3,1.0284102E3,3.8296467E3,4.39E2,1.5493164E0,1.9054492E2,3.1753662E1,0E0,0E0,0E0,0E0,0E0,0E0,0E0,0E0,0E0,0E0,0E0,0E0,0E0,0E0,0E0,0E0],"parents":[2147483647,0,0,1,1,2,2,3,3,4,4,5,5,6,6,7,7,8,8,9,9,10,10,11,11,12,12,13,13,14,14],"right_children":[2,4,6,8,10,12,14,16,18,20,22,24,26,28,30,-1,-1,-1,-1,-1,-1,-1,-1,-1,-1,-1,-1,-1,-1,-1,-1],"split_conditions":[1E0,5E-1,1E0,2.1428572E-1,1.3862944E0,4.173602E0,9.837562E0,8.2E1,4.4886365E0,1.3862944E0,3.7612002E0,9.520402E-1,4.4444445E-1,6.0930347E0,3.6888795E0,-3.9094515E-2,-2.2498865E-2,-3.7712E-2,1.719266E-2,-3.6516428E-2,-6.3308217E-3,-4.0618397E-2,2.6898744E-2,3.9156783E-2,-8.000923E-5,-3.9110202E-2,-5.4946505E-2,-4.024511E-2,9.244609E-3,-3.7281185E-2,4.0639937E-2],"split_indices":[24,28,6,28,0,4,29,2,20,26,20,18,28,4,20,0,0,0,0,0,0,0,0,0,0,0,0,0,0,0,0],"split_type":[0,0,0,0,0,0,0,0,0,0,0,0,0,0,0,0,0,0,0,0,0,0,0,0,0,0,0,0,0,0,0],"sum_hessian":[6.551683E5,3.3580988E5,3.1935847E5,3.1948238E5,1.6327509E4,3.1749462E5,1.8638502E3,3.06708E5,1.2774364E4,7.7225806E3,8.604928E3,3.1712253E5,3.7207584E2,1.2073131E3,6.56537E2,3.0646703E5,2.4098386E2,1.0756473E4,2.0178915E3,6.518744E3,1.2038368E3,8.367151E2,7.768213E3,3.168657E5,2.5684525E2,3.6083655E2,1.1239302E1,1.1330461E3,7.426702E1,4.0094457E0,6.525275E2],"tree_param":{"num_deleted":"0","num_feature":"32","num_nodes":"31","size_leaf_vector":"1"}},{"base_weights":[-3.5139928E-3,-1.2194396E0,1.2797306E0,-1.2527047E0,-6.8971324E-1,1.2891989E0,-2.895401E-1,-1.2612803E0,-2.94351E-1,6.697623E-1,-1.2494324E0,1.2922595E0,-1.3138276E0,-1.2255701E0,1.3597084E0,-3.808482E-2,-2.4389436E-2,3.8460314E-2,-4.2281024E-2,3.256142E-2,-1.0317938E-2,-3.859599E-2,1.5243754E-2,3.8801573E-2,3.5973522E-3,-5.153712E-2,-3.8736314E-2,-3.991784E-2,1.5246695E-2,-3.4149893E-2,4.1292723E-2],"categories":[],"categories_nodes":[],"categories_segments":[],"categories_sizes":[],"default_left":[0,0,0,0,0,0,0,0,0,0,0,0,0,0,0,0,0,0,0,0,0,0,0,0,0,0,0,0,0,0,0],"id":26,"left_children":[1,3,5,7,9,11,13,15,17,19,21,23,25,27,29,-1,-1,-1,-1,-1,-1,-1,-1,-1,-1,-1,-1,-1,-1,-1,-1],"loss_changes":[1.0006572E6,5.80175E3,4.6364375E3,2.546E3,1.4807629E4,2.4725E3,2.8917292E3,1.1296875E3,4.8339307E3,2.3916062E3,8.9946875E2,4.0890625E2,1.1149902E0,2.1824207E2,2.9890015E1,0E0,0E0,0E0,0E0,0E0,0E0,0E0,0E0,0E0,0E0,0E0,0E0,0E0,0E0,0E0,0E0],"parents":[2147483647,0,0,1,1,2,2,3,3,4,4,5,5,6,6,7,7,8,8,9,9,10,10,11,11,12,12,13,13,14,14],"right_children":[2,4,6,8,10,12,14,16,18,20,22,24,26,28,30,-1,-1,-1,-1,-1,-1,-1,-1,-1,-1,-1,-1,-1,-1,-1,-1],"split_conditions":[1E0,5.958982E0,1E0,5.7365723E0,2.0794415E0,4.173602E0,9.837562E0,1.9459101E0,3.4965076E0,1E0,6.391917E0,9.520402E-1,1.609438E0,6.145763E0,2.6390574E0,-3.808482E-2,-2.4389436E-2,3.8460314E-2,-4.2281024E-2,3.256142E-2,-1.0317938E-2,-3.859599E-2,1.5243754E-2,3.8801573E-2,3.5973522E-3,-5.153712E-2,-3.8736314E-2,-3.991784E-2,1.5246695E-2,-3.4149893E-2,4.1292723E-2],"split_indices":[24,19,6,27,26,4,29,1,26,6,27,18,26,19,27,0,0,0,0,0,0,0,0,0,0,0,0,0,0,0,0],"split_type":[0,0,0,0,0,0,0,0,0,0,0,0,0,0,0,0,0,0,0,0,0,0,0,0,0,0,0,0,0,0,0],"sum_hessian":[6.4130925E5,3.2929197E5,3.1201728E5,3.0983403E5,1.9457947E4,3.1014616E5,1.8711105E3,3.0708584E5,2.748166E3,5.6747114E3,1.3783235E4,3.0978244E5,3.637228E2,1.1938171E3,6.772933E2,3.0155884E5,5.5270225E3,1.1384812E3,1.6096848E3,4.0245564E3,1.6501549E3,1.3498561E4,2.846747E2,3.0948497E5,2.974806E2,1.5306249E1,3.4841656E2,1.1258511E3,6.796601E1,4.0560155E0,6.732373E2],"tree_param":{"num_deleted":"0","num_feature":"32","num_nodes":"31","size_leaf_vector":"1"}},{"base_weights":[-1.4877728E-3,-1.2082255E0,1.2686863E0,-1.2662387E0,-1.03337824E-1,-1.3057394E0,1.2798959E0,-1.2757976E0,1.4136267E-1,-1.3268708E0,4.5920035E-1,-3.888655E-2,-4.496412E-2,1.2827258E0,-3.8402993E-2,-3.838544E-2,-2.9409735E-2,-4.081142E-2,3.987548E-2,-3.9370365E-2,-4.2612992E-2,-2.903674E-2,2.5949508E-2,3.8490806E-2,-4.3322932E-2],"categories":[],"categories_nodes":[],"categories_segments":[],"categories_sizes":[],"default_left":[0,0,0,0,0,0,0,0,0,0,0,0,0,0,0,0,0,0,0,0,0,0,0,0,0],"id":27,"left_children":[1,3,5,7,9,11,13,15,17,19,21,-1,-1,23,-1,-1,-1,-1,-1,-1,-1,-1,-1,-1,-1],"loss_changes":[9.643685E5,2.06805E4,8.847531E3,4.1248125E3,1.1079619E4,5.0097656E-1,2.2126875E3,3.33125E2,3.6917708E3,5.026367E0,6.386785E3,0E0,0E0,2.5228125E2,0E0,0E0,0E0,0E0,0E0,0E0,0E0,0E0,0E0,0E0,0E0],"parents":[2147483647,0,0,1,1,2,2,3,3,4,4,5,5,6,6,7,7,8,8,9,9,10,10,13,13],"right_children":[2,4,6,8,10,12,14,16,18,20,22,-1,-1,24,-1,-1,-1,-1,-1,-1,-1,-1,-1,-1,-1],"split_conditions":[1E0,5E-1,9.269741E0,1.7548342E1,1.0202369E1,4.4444445E-1,4.4426513E0,3.3333334E-1,2.1428572E-1,1.609438E0,3.871201E0,-3.888655E-2,-4.496412E-2,1.9636097E0,-3.8402993E-2,-3.838544E-2,-2.9409735E-2,-4.081142E-2,3.987548E-2,-3.9370365E-2,-4.2612992E-2,-2.903674E-2,2.5949508E-2,3.8490806E-2,-4.3322932E-2],"split_indices":[24,28,3,3,3,28,21,28,28,27,20,0,0,14,0,0,0,0,0,0,0,0,0,0,0],"split_type":[0,0,0,0,0,0,0,0,0,0,0,0,0,0,0,0,0,0,0,0,0,0,0,0,0],"sum_hessian":[6.291664E5,3.2264003E5,3.0652638E5,3.0654447E5,1.6095567E4,1.3283959E3,3.0519797E5,3.0447688E5,2.0675957E3,5.069007E3,1.1026561E4,1.2733162E3,5.5079685E1,3.0486147E5,3.3650577E2,3.0069084E5,3.7860325E3,9.130698E2,1.154526E3,4.4008228E3,6.6818414E2,2.440882E3,8.585679E3,3.048283E5,3.313801E1],"tree_param":{"num_deleted":"0","num_feature":"32","num_nodes":"25","size_leaf_vector":"1"}},{"base_weights":[-4.085505E-3,-1.1977323E0,1.2577498E0,-1.2532398E0,-1.3347653E-1,-1.2932056E0,1.2689698E0,-1.2638026E0,2.0854008E-1,-1.3144435E0,4.1239974E-1,-3.8545977E-2,-4.411454E-2,1.2720404E0,-1.3006808E0,-3.804172E-2,-2.7913293E-2,-4.0352963E-2,3.920817E-2,-3.91508E-2,-4.3302044E-2,-2.8670866E-2,2.4361309E-2,3.8170055E-2,-4.3369282E-2,-4.6815407E-2,-3.8077958E-2],"categories":[],"categories_nodes":[],"categories_segments":[],"categories_sizes":[],"default_left":[0,0,0,0,0,0,0,0,0,0,0,0,0,0,0,0,0,0,0,0,0,0,0,0,0,0,0],"id":28,"left_children":[1,3,5,7,9,11,13,15,17,19,21,-1,-1,23,25,-1,-1,-1,-1,-1,-1,-1,-1,-1,-1,-1,-1],"loss_changes":[9.257541E5,1.86585E4,8.553344E3,4.6354688E3,1.0094725E4,4.5654297E-2,2.3488125E3,4.215E2,3.6784531E3,4.126953E0,5.8560137E3,0E0,0E0,2.3984375E2,9.2144775E-1,0E0,0E0,0E0,0E0,0E0,0E0,0E0,0E0,0E0,0E0,0E0,0E0],"parents":[2147483647,0,0,1,1,2,2,3,3,4,4,5,5,6,6,7,7,8,8,9,9,10,10,13,13,14,14],"right_children":[2,4,6,8,10,12,14,16,18,20,22,-1,-1,24,26,-1,-1,-1,-1,-1,-1,-1,-1,-1,-1,-1,-1],"split_conditions":[1E0,5E-1,9.269741E0,1.7548342E1,1.0202369E1,4.4444445E-1,4.173602E0,3.3333334E-1,2.1428572E-1,4E0,3.871201E0,-3.8545977E-2,-4.411454E-2,1.9459101E0,3.5553482E0,-3.804172E-2,-2.7913293E-2,-4.0352963E-2,3.920817E-2,-3.91508E-2,-4.3302044E-2,-2.8670866E-2,2.4361309E-2,3.8170055E-2,-4.3369282E-2,-4.6815407E-2,-3.8077958E-2],"split_indices":[24,28,3,3,3,28,4,28,28,2,20,0,0,14,21,0,0,0,0,0,0,0,0,0,0,0,0],"split_type":[0,0,0,0,0,0,0,0,0,0,0,0,0,0,0,0,0,0,0,0,0,0,0,0,0,0,0],"sum_hessian":[6.146328E5,3.158506E5,2.9878222E5,3.0019347E5,1.5657106E4,1.3078944E3,2.9747434E5,2.9803997E5,2.1535044E3,4.948958E3,1.0708148E4,1.2570099E3,5.088453E1,2.971198E5,3.5453326E2,2.9428116E5,3.7588164E3,8.9182745E2,1.2616769E3,4.6225356E3,3.2642212E2,2.420544E3,8.2876045E3,2.9708812E5,3.1695099E1,3.29915E1,3.2154175E2],"tree_param":{"num_deleted":"0","num_feature":"32","num_nodes":"27","size_leaf_vector":"1"}},{"base_weights":[-2.5930651E-3,-1.1853703E0,1.2478625E0,-1.2437342E0,-9.913343E-2,-3.8459443E-2,1.2588688E0,-1.2537743E0,1.7343491E-1,-1.1328909E0,5.5212015E-1,1.261615E0,-3.7769727E-2,-3.7742175E-2,-2.753652E-2,-3.994785E-2,3.8912494E-2,-3.957102E-2,-2.5318466E-2,-4.0499512E-2,2.5629003E-2,1.2120462E-2,3.7869193E-2],"categories":[],"categories_nodes":[],"categories_segments":[],"categories_sizes":[],"default_left":[0,0,0,0,0,0,0,0,0,0,0,0,0,0,0,0,0,0,0,0,0,0,0],"id":29,"left_children":[1,3,5,7,9,-1,11,13,15,17,19,21,-1,-1,-1,-1,-1,-1,-1,-1,-1,-1,-1],"loss_changes":[8.905544E5,1.9617344E4,8.1514375E3,4.1785E3,1.0624014E4,0E0,2.016625E3,4.1984375E2,3.496788E3,3.2692334E2,5.5658335E3,1.7209375E2,0E0,0E0,0E0,0E0,0E0,0E0,0E0,0E0,0E0,0E0,0E0],"parents":[2147483647,0,0,1,1,2,2,3,3,4,4,6,6,7,7,8,8,9,9,10,10,11,11],"right_children":[2,4,6,8,10,-1,12,14,16,18,20,22,-1,-1,-1,-1,-1,-1,-1,-1,-1,-1,-1],"split_conditions":[6.931472E-1,5E-1,9.269741E0,1.7548342E1,1.3862944E0,-3.8459443E-2,4.4426513E0,3.3333334E-1,2.1428572E-1,3.9318256E0,1.0202369E1,1.3862944E0,-3.7769727E-2,-3.7742175E-2,-2.753652E-2,-3.994785E-2,3.8912494E-2,-3.957102E-2,-2.5318466E-2,-4.0499512E-2,2.5629003E-2,1.2120462E-2,3.7869193E-2],"split_indices":[25,28,3,3,27,0,21,28,28,20,3,27,0,0,0,0,0,0,0,0,0,0,0],"split_type":[0,0,0,0,0,0,0,0,0,0,0,0,0,0,0,0,0,0,0,0,0,0,0],"sum_hessian":[6.0212656E5,3.0943712E5,2.9268944E5,2.936586E5,1.5778537E4,1.2673582E3,2.9142206E5,2.915929E5,2.0657087E3,6.098089E3,9.680448E3,2.9110506E5,3.1700107E2,2.8790603E5,3.6868738E3,8.8292365E2,1.1827852E3,3.7066277E3,2.3914612E3,1.3265939E3,8.3538545E3,2.3498187E2,2.908701E5],"tree_param":{"num_deleted":"0","num_feature":"32","num_nodes":"23","size_leaf_vector":"1"}},{"base_weights":[1.2647302E-3,-1.1783493E0,1.2382799E0,-1.2327007E0,-1.44181E-1,-3.81473E-2,1.2490677E0,-1.2426678E0,1.7188296E-1,-1.1420441E0,5.0641793E-1,3.2651615E-1,1.252009E0,-3.7427332E-2,-2.5959246E-2,-3.9574053E-2,3.8449563E-2,-3.8420286E-2,-2.2713605E-2,-4.010547E-2,2.4403302E-2,-3.0578112E-2,3.9841972E-2,1.2762561E-4,3.7575092E-2],"categories":[],"categories_nodes":[],"categories_segments":[],"categories_sizes":[],"default_left":[0,0,0,0,0,0,0,0,0,0,0,0,0,0,0,0,0,0,0,0,0,0,0,0,0],"id":30,"left_children":[1,3,5,7,9,-1,11,13,15,17,19,21,23,-1,-1,-1,-1,-1,-1,-1,-1,-1,-1,-1,-1],"loss_changes":[8.619007E5,1.6994344E4,7.808E3,4.0215938E3,9.802221E3,0E0,7.7859375E2,5.27375E2,3.3522463E3,3.170171E2,5.1736064E3,1.2330079E3,1.7640625E2,0E0,0E0,0E0,0E0,0E0,0E0,0E0,0E0,0E0,0E0,0E0,0E0],"parents":[2147483647,0,0,1,1,2,2,3,3,4,4,6,6,7,7,8,8,9,9,10,10,11,11,12,12],"right_children":[2,4,6,8,10,-1,12,14,16,18,20,22,24,-1,-1,-1,-1,-1,-1,-1,-1,-1,-1,-1,-1],"split_conditions":[1E0,5E-1,9.269741E0,1.7548342E1,1.3862944E0,-3.81473E-2,2.1353357E-1,3.3333334E-1,2.1428572E-1,4.816248E0,1.0202369E1,1E0,1.3862944E0,-3.7427332E-2,-2.5959246E-2,-3.9574053E-2,3.8449563E-2,-3.8420286E-2,-2.2713605E-2,-4.010547E-2,2.4403302E-2,-3.0578112E-2,3.9841972E-2,1.2762561E-4,3.7575092E-2],"split_indices":[24,28,3,3,27,0,18,28,28,19,3,28,27,0,0,0,0,0,0,0,0,0,0,0,0],"split_type":[0,0,0,0,0,0,0,0,0,0,0,0,0,0,0,0,0,0,0,0,0,0,0,0,0],"sum_hessian":[5.906644E5,3.0234712E5,2.8831728E5,2.8725028E5,1.5096831E4,1.2334227E3,2.8708384E5,2.852264E5,2.0238892E3,5.957972E3,9.138858E3,9.1277686E2,2.8617106E5,2.8156066E5,3.6657483E3,8.635233E2,1.160366E3,4.378652E3,1.5793207E3,1.3043958E3,7.8344624E3,3.8945148E2,5.233254E2,1.13271835E2,2.860578E5],"tree_param":{"num_deleted":"0","num_feature":"32","num_nodes":"25","size_leaf_vector":"1"}},{"base_weights":[-2.2310708E-3,-1.1679771E0,1.2287011E0,-1.2267679E0,-9.651847E-2,1.2366122E0,-5.9995997E-1,-1.2350942E0,-3.66343E-1,-1.176629E0,5.528473E-1,1.2396042E0,-3.7682556E-2,-1.0200844E0,8.86041E-1,-3.717368E-2,-2.7715491E-2,-4.0252224E-2,3.822954E-2,-8.74479E-3,-3.6705784E-2,-1.9764869E-2,2.517824E-2,1.2908622E-2,3.7288446E-2,-3.8431276E-2,4.05367E-2,3.634691E-2,-3.6961015E-2],"categories":[],"categories_nodes":[],"categories_segments":[],"categories_sizes":[],"default_left":[0,0,0,0,0,0,0,0,0,0,0,0,0,0,0,0,0,0,0,0,0,0,0,0,0,0,0,0,0],"id":31,"left_children":[1,3,5,7,9,11,13,15,17,19,21,23,-1,25,27,-1,-1,-1,-1,-1,-1,-1,-1,-1,-1,-1,-1,-1,-1],"loss_changes":[8.2740725E5,1.8654656E4,4.0580938E3,2.0108438E3,1.0805753E4,2.0842812E3,7.555491E2,3.475E2,4.3099146E3,2.3976367E2,3.339863E3,7.543125E2,0E0,5.851579E2,1.8555556E2,0E0,0E0,0E0,0E0,0E0,0E0,0E0,0E0,0E0,0E0,0E0,0E0,0E0,0E0],"parents":[2147483647,0,0,1,1,2,2,3,3,4,4,5,5,6,6,7,7,8,8,9,9,10,10,11,11,13,13,14,14],"right_children":[2,4,6,8,10,12,14,16,18,20,22,24,-1,26,28,-1,-1,-1,-1,-1,-1,-1,-1,-1,-1,-1,-1,-1,-1],"split_conditions":[6.931472E-1,5E-1,1.3663602E0,5.7365723E0,1.3862944E0,4.173602E0,5.8281126E0,3.3333334E-1,2.1428572E-1,8.904562E-3,3.8918202E0,3.637586E0,-3.7682556E-2,9.837562E0,4.1666668E-4,-3.717368E-2,-2.7715491E-2,-4.0252224E-2,3.822954E-2,-8.74479E-3,-3.6705784E-2,-1.9764869E-2,2.517824E-2,1.2908622E-2,3.7288446E-2,-3.8431276E-2,4.05367E-2,3.634691E-2,-3.6961015E-2],"split_indices":[25,28,14,27,27,4,19,28,28,17,20,27,0,29,31,0,0,0,0,0,0,0,0,0,0,0,0,0,0],"split_type":[0,0,0,0,0,0,0,0,0,0,0,0,0,0,0,0,0,0,0,0,0,0,0,0,0,0,0,0,0],"sum_hessian":[5.7660675E5,2.9614484E5,2.804619E5,2.807405E5,1.5404342E4,2.7925412E5,1.207776E3,2.7804938E5,2.6911277E3,5.7835576E3,9.620784E3,2.7891984E5,3.3428314E2,9.4181744E2,2.6595853E2,2.7449353E5,3.5558245E3,1.6878546E3,1.003273E3,2.9137555E2,5.492182E3,1.8391809E3,7.781603E3,1.1482506E3,2.777716E5,8.488615E2,9.295592E1,2.3089998E2,3.5058556E1],"tree_param":{"num_deleted":"0","num_feature":"32","num_nodes":"29","size_leaf_vector":"1"}},{"base_weights":[-2.4576364E-3,-1.1587349E0,1.2196231E0,-1.2156172E0,-1.169277E-1,1.2276201E0,-7.208792E-1,-1.2258204E0,-2.442759E-1,-9.923038E-1,6.0036904E-1,1.2306042E0,-3.7418243E-2,-9.604261E-1,1.3289136E0,-3.688332E-2,-2.835008E-2,-3.9839502E-2,3.79378E-2,-3.3256654E-2,2.6251096E-2,-3.7177924E-2,2.4399703E-2,1.3481951E-2,3.7018884E-2,-3.8118474E-2,1.571605E-2,-3.3610485E-2,4.259353E-2],"categories":[],"categories_nodes":[],"categories_segments":[],"categories_sizes":[],"default_left":[0,0,0,0,0,0,0,0,0,0,0,0,0,0,0,0,0,0,0,0,0,0,0,0,0,0,0,0,0],"id":32,"left_children":[1,3,5,7,9,11,13,15,17,19,21,23,-1,25,27,-1,-1,-1,-1,-1,-1,-1,-1,-1,-1,-1,-1,-1,-1],"loss_changes":[7.959909E5,1.7152625E4,4.2507812E3,2.7198125E3,9.410745E3,2.01575E3,5.534922E2,2.7525E2,4.6689204E3,1.4662534E3,3.2281782E3,7.141875E2,0E0,4.6454596E2,2.7874847E1,0E0,0E0,0E0,0E0,0E0,0E0,0E0,0E0,0E0,0E0,0E0,0E0,0E0,0E0],"parents":[2147483647,0,0,1,1,2,2,3,3,4,4,5,5,6,6,7,7,8,8,9,9,10,10,11,11,13,13,14,14],"right_children":[2,4,6,8,10,12,14,16,18,20,22,24,-1,26,28,-1,-1,-1,-1,-1,-1,-1,-1,-1,-1,-1,-1,-1,-1],"split_conditions":[1E0,5E-1,1.3663602E0,5.7365723E0,4.9282694E0,4.173602E0,9.837562E0,3.3333334E-1,2.1428572E-1,2.7725887E0,3.7612002E0,3.637586E0,-3.7418243E-2,5.8281126E0,3.2580965E0,-3.688332E-2,-2.835008E-2,-3.9839502E-2,3.79378E-2,-3.3256654E-2,2.6251096E-2,-3.7177924E-2,2.4399703E-2,1.3481951E-2,3.7018884E-2,-3.8118474E-2,1.571605E-2,-3.3610485E-2,4.259353E-2],"split_indices":[24,28,14,27,19,4,29,28,28,27,20,27,0,19,27,0,0,0,0,0,0,0,0,0,0,0,0,0,0],"split_type":[0,0,0,0,0,0,0,0,0,0,0,0,0,0,0,0,0,0,0,0,0,0,0,0,0,0,0,0,0],"sum_hessian":[5.633064E5,2.8944588E5,2.738605E5,2.7446028E5,1.4985597E4,2.7273688E5,1.1236267E3,2.71607E5,2.8532798E3,6.7489346E3,8.236662E3,2.7240894E5,3.2794818E2,1.00653094E3,1.1709573E2,2.6814347E5,3.4635261E3,1.6606671E3,1.1926127E3,6.353785E3,3.9514917E2,8.540474E2,7.3826147E3,1.1667E3,2.7124222E5,8.3266376E2,1.7386719E2,3.7837036E0,1.1331203E2],"tree_param":{"num_deleted":"0","num_feature":"32","num_nodes":"29","size_leaf_vector":"1"}},{"base_weights":[-2.342349E-3,-1.1500635E0,1.211202E0,-1.2055054E0,-1.3459168E-1,-3.761722E-2,1.2221725E0,-1.2158096E0,1.9516098E-1,-1.1029241E0,4.7489172E-1,1.2248851E0,-3.67121E-2,-3.6615964E-2,-2.578203E-2,-3.852393E-2,3.7466794E-2,-2.110663E-2,-3.8453914E-2,-3.9656572E-2,2.3074005E-2,3.6756E-2,-4.218848E-2],"categories":[],"categories_nodes":[],"categories_segments":[],"categories_sizes":[],"default_left":[0,0,0,0,0,0,0,0,0,0,0,0,0,0,0,0,0,0,0,0,0,0,0],"id":33,"left_children":[1,3,5,7,9,-1,11,13,15,17,19,21,-1,-1,-1,-1,-1,-1,-1,-1,-1,-1,-1],"loss_changes":[7.669879E5,1.5933375E4,7.24E3,3.8734688E3,8.648417E3,0E0,1.7695E3,4.47375E2,3.0578792E3,4.034624E2,4.7557324E3,2.223125E2,0E0,0E0,0E0,0E0,0E0,0E0,0E0,0E0,0E0,0E0,0E0],"parents":[2147483647,0,0,1,1,2,2,3,3,4,4,6,6,7,7,8,8,9,9,10,10,11,11],"right_children":[2,4,6,8,10,-1,12,14,16,18,20,22,-1,-1,-1,-1,-1,-1,-1,-1,-1,-1,-1],"split_conditions":[1E0,5E-1,9.269741E0,1.7548342E1,1.3862944E0,-3.761722E-2,4.4426513E0,3.3333334E-1,2.1428572E-1,1E0,1.0202369E1,1.9636097E0,-3.67121E-2,-3.6615964E-2,-2.578203E-2,-3.852393E-2,3.7466794E-2,-2.110663E-2,-3.8453914E-2,-3.9656572E-2,2.3074005E-2,3.6756E-2,-4.218848E-2],"split_indices":[24,28,3,3,27,0,21,28,28,15,3,14,0,0,0,0,0,0,0,0,0,0,0],"split_type":[0,0,0,0,0,0,0,0,0,0,0,0,0,0,0,0,0,0,0,0,0,0,0],"sum_hessian":[5.506743E5,2.8301256E5,2.6766175E5,2.6836066E5,1.4651912E4,1.1853939E3,2.6647638E5,2.6640097E5,1.9596873E3,5.6594717E3,8.992441E3,2.6618166E5,2.9470346E2,2.6291475E5,3.4861982E3,8.151344E2,1.1445529E3,1.7522208E3,3.9072507E3,1.2648971E3,7.727544E3,2.6615034E5,3.1325747E1],"tree_param":{"num_deleted":"0","num_feature":"32","num_nodes":"23","size_leaf_vector":"1"}},{"base_weights":[-3.3370897E-3,-1.1431437E0,1.2031107E0,-1.19745E0,-1.4245237E-1,1.2121751E0,-3.7213528E-1,-1.2058249E0,-3.4602728E-1,-1.0395012E0,4.389048E-1,1.2150297E0,-1.2401026E0,-1.0510229E0,1.2550843E0,-3.631809E-2,-2.5507025E-2,-3.9172214E-2,3.7209187E-2,-2.2983812E-2,-3.806029E-2,2.159004E-2,-2.8760707E-2,2.0578744E-2,3.6523934E-2,-3.6479738E-2,-5.1892642E-2,-3.8027223E-2,3.9924737E-3,-3.722309E-2,3.8945545E-2],"categories":[],"categories_nodes":[],"categories_segments":[],"categories_sizes":[],"default_left":[0,0,0,0,0,0,0,0,0,0,0,0,0,0,0,0,0,0,0,0,0,0,0,0,0,0,0,0,0,0,0],"id":34,"left_children":[1,3,5,7,9,11,13,15,17,19,21,23,25,27,29,-1,-1,-1,-1,-1,-1,-1,-1,-1,-1,-1,-1,-1,-1,-1,-1],"loss_changes":[7.397894E5,1.5033125E4,3.7322188E3,1.8705625E3,7.4271343E3,1.8205625E3,1.6540078E3,4.404375E2,3.8947979E3,3.498877E2,3.391588E3,3.3353125E2,1.4694519E0,2.709939E2,4.9036804E1,0E0,0E0,0E0,0E0,0E0,0E0,0E0,0E0,0E0,0E0,0E0,0E0,0E0,0E0,0E0,0E0],"parents":[2147483647,0,0,1,1,2,2,3,3,4,4,5,5,6,6,7,7,8,8,9,9,10,10,11,11,12,12,13,13,14,14],"right_children":[2,4,6,8,10,12,14,16,18,20,22,24,26,28,30,-1,-1,-1,-1,-1,-1,-1,-1,-1,-1,-1,-1,-1,-1,-1,-1],"split_conditions":[1E0,5E-1,1E0,5.7365723E0,1.3862944E0,4.173602E0,1.0003785E1,3.3333334E-1,2.1428572E-1,4.1666668E-4,4.1666668E-4,3.9318256E0,4.4444445E-1,1.9459101E0,3.2580965E0,-3.631809E-2,-2.5507025E-2,-3.9172214E-2,3.7209187E-2,-2.2983812E-2,-3.806029E-2,2.159004E-2,-2.8760707E-2,2.0578744E-2,3.6523934E-2,-3.6479738E-2,-5.1892642E-2,-3.8027223E-2,3.9924737E-3,-3.722309E-2,3.8945545E-2],"split_indices":[24,28,6,27,27,4,30,28,28,31,31,27,28,0,27,0,0,0,0,0,0,0,0,0,0,0,0,0,0,0,0],"split_type":[0,0,0,0,0,0,0,0,0,0,0,0,0,0,0,0,0,0,0,0,0,0,0,0,0,0,0,0,0,0,0],"sum_hessian":[5.379808E5,2.7663066E5,2.6135019E5,2.623908E5,1.4239837E4,2.5985514E5,1.4950532E3,2.598346E5,2.5562212E3,5.599256E3,8.640581E3,2.5955352E5,3.0162585E2,1.0551792E3,4.3987415E2,2.5638708E5,3.4475093E3,1.592783E3,9.634382E2,2.5553818E3,3.0438738E3,7.1955503E3,1.4450308E3,1.1903158E3,2.5836319E5,2.9079022E2,1.0835649E1,8.9198145E2,1.6319768E2,6.9954686E0,4.3287866E2],"tree_param":{"num_deleted":"0","num_feature":"32","num_nodes":"31","size_leaf_vector":"1"}},{"base_weights":[1.5696987E-3,-1.1338699E0,1.1952425E0,-1.1890258E0,-1.3862099E-1,-1.2408242E0,1.2061647E0,-1.1985036E0,1.5369663E-1,-1.2541027E0,3.5594577E-1,-3.9327E-2,-3.655281E-2,1.2091385E0,-1.2471926E0,-3.610328E-2,-2.4929967E-2,-3.7887536E-2,3.6834452E-2,-3.7266616E-2,-4.1635364E-2,-2.4291435E-2,2.1565584E-2,-4.9309913E-2,3.6280047E-2,-4.5743693E-2,-3.6223482E-2],"categories":[],"categories_nodes":[],"categories_segments":[],"categories_sizes":[],"default_left":[0,0,0,0,0,0,0,0,0,0,0,0,0,0,0,0,0,0,0,0,0,0,0,0,0,0,0],"id":35,"left_children":[1,3,5,7,9,11,13,15,17,19,21,-1,-1,23,25,-1,-1,-1,-1,-1,-1,-1,-1,-1,-1,-1,-1],"loss_changes":[7.148511E5,1.4838125E4,6.84275E3,3.2595625E3,7.831474E3,2.0495605E-1,1.8690938E3,4.6059375E2,2.7344402E3,5.2060547E0,4.1611895E3,0E0,0E0,1.4521875E2,1.5833435E0,0E0,0E0,0E0,0E0,0E0,0E0,0E0,0E0,0E0,0E0,0E0,0E0],"parents":[2147483647,0,0,1,1,2,2,3,3,4,4,5,5,6,6,7,7,8,8,9,9,10,10,13,13,14,14],"right_children":[2,4,6,8,10,12,14,16,18,20,22,-1,-1,24,26,-1,-1,-1,-1,-1,-1,-1,-1,-1,-1,-1,-1],"split_conditions":[1E0,5E-1,9.269741E0,1.7548342E1,1.0202369E1,1E0,4.173602E0,3.3333334E-1,2.1428572E-1,5.227269E0,1.3862944E0,-3.9327E-2,-3.655281E-2,1.6739123E-3,3.5553482E0,-3.610328E-2,-2.4929967E-2,-3.7887536E-2,3.6834452E-2,-3.7266616E-2,-4.1635364E-2,-2.4291435E-2,2.1565584E-2,-4.9309913E-2,3.6280047E-2,-4.5743693E-2,-3.6223482E-2],"split_indices":[24,28,3,3,3,6,4,28,28,19,27,0,0,4,21,0,0,0,0,0,0,0,0,0,0,0,0],"split_type":[0,0,0,0,0,0,0,0,0,0,0,0,0,0,0,0,0,0,0,0,0,0,0,0,0,0,0],"sum_hessian":[5.274298E5,2.703084E5,2.5712138E5,2.5611455E5,1.419387E4,1.1471614E3,2.5597422E5,2.543195E5,1.795049E3,4.3595312E3,9.834339E3,2.639125E2,8.8324884E2,2.5566481E5,3.0939508E2,2.5094464E5,3.3748594E3,7.740318E2,1.0210172E3,4.0132673E3,3.4626373E2,2.3345415E3,7.499797E3,1.702513E1,2.556478E5,3.4068474E1,2.7532663E2],"tree_param":{"num_deleted":"0","num_feature":"32","num_nodes":"27","size_leaf_vector":"1"}},{"base_weights":[-2.1157765E-3,-1.1253445E0,1.1876742E0,-1.1816579E0,-1.2190747E-1,-1.2320526E0,1.1985599E0,-1.1906171E0,1.2221714E-1,-1.2446647E0,3.6693174E-1,-3.8970612E-2,-3.631312E-2,1.2015502E0,-9.2937213E-1,-3.6129966E-2,-3.1764828E-2,-3.7598155E-2,3.6439795E-2,-3.7000667E-2,-4.115379E-2,-2.1820394E-2,2.1897145E-2,3.605022E-2,-9.866425E-2,-3.7935305E-2,5.3386785E-2],"categories":[],"categories_nodes":[],"categories_segments":[],"categories_sizes":[],"default_left":[0,0,0,0,0,0,0,0,0,0,0,0,0,0,0,0,0,0,0,0,0,0,0,0,0,0,0],"id":36,"left_children":[1,3,5,7,9,11,13,15,17,19,21,-1,-1,23,25,-1,-1,-1,-1,-1,-1,-1,-1,-1,-1,-1,-1],"loss_changes":[6.869668E5,1.494125E4,6.5766562E3,2.9247812E3,7.712742E3,4.663086E-2,1.5824062E3,4.4815625E2,2.570246E3,4.4365234E0,3.8891665E3,0E0,0E0,1.4178125E2,3.1936325E2,0E0,0E0,0E0,0E0,0E0,0E0,0E0,0E0,0E0,0E0,0E0,0E0],"parents":[2147483647,0,0,1,1,2,2,3,3,4,4,5,5,6,6,7,7,8,8,9,9,10,10,13,13,14,14],"right_children":[2,4,6,8,10,12,14,16,18,20,22,-1,-1,24,26,-1,-1,-1,-1,-1,-1,-1,-1,-1,-1,-1,-1],"split_conditions":[1E0,5E-1,9.269741E0,1.7548342E1,1.0202369E1,1E0,2.8209076E0,1.1515103E1,2.1428572E-1,5.227269E0,4.8445425E0,-3.8970612E-2,-3.631312E-2,1.6422278E0,6E0,-3.6129966E-2,-3.1764828E-2,-3.7598155E-2,3.6439795E-2,-3.7000667E-2,-4.115379E-2,-2.1820394E-2,2.1897145E-2,3.605022E-2,-9.866425E-2,-3.7935305E-2,5.3386785E-2],"split_indices":[24,28,3,3,3,6,4,3,28,19,19,0,0,13,2,0,0,0,0,0,0,0,0,0,0,0,0],"split_type":[0,0,0,0,0,0,0,0,0,0,0,0,0,0,0,0,0,0,0,0,0,0,0,0,0,0,0],"sum_hessian":[5.1403838E5,2.644154E5,2.4962297E5,2.5036462E5,1.4050777E4,1.1174529E3,2.4850552E5,2.4865616E5,1.7084705E3,4.261498E3,9.789279E3,2.5824908E2,8.592038E2,2.4815722E5,3.4829495E2,2.2521061E5,2.3445547E4,7.5619806E2,9.522724E2,3.9232014E3,3.3829648E2,2.4380698E3,7.351209E3,2.4815112E5,6.1050014E0,3.104238E2,3.7871162E1],"tree_param":{"num_deleted":"0","num_feature":"32","num_nodes":"27","size_leaf_vector":"1"}},{"base_weights":[-5.181888E-4,-1.1200428E0,1.1806597E0,-1.1776979E0,-1.17569536E-1,-3.0388513E-1,1.1896493E0,-1.1900258E0,-8.879679E-1,-8.479337E-1,5.251939E-1,-9.828498E-1,9.779552E-1,1.1922052E0,-3.5758857E-2,-3.5737038E-2,2.4255575E-3,-3.4586374E-2,1.5793594E-2,-3.1028269E-2,6.0730573E-4,-3.502236E-2,2.346304E-2,-3.7694633E-2,3.6074173E-2,3.4089472E-2,-6.401009E-2,1.6849807E-2,3.5841312E-2],"categories":[],"categories_nodes":[],"categories_segments":[],"categories_sizes":[],"default_left":[0,0,0,0,0,0,0,0,0,0,0,0,0,0,0,0,0,0,0,0,0,0,0,0,0,0,0,0,0],"id":37,"left_children":[1,3,5,7,9,11,13,15,17,19,21,23,25,27,-1,-1,-1,-1,-1,-1,-1,-1,-1,-1,-1,-1,-1,-1,-1],"loss_changes":[6.654086E5,1.4931406E4,3.268125E3,8.715E2,6.5967256E3,1.2843534E3,1.482875E3,3.6009375E2,3.737876E3,1.0641475E3,3.2510789E3,5.7827E2,2.5428018E2,3.83375E2,0E0,0E0,0E0,0E0,0E0,0E0,0E0,0E0,0E0,0E0,0E0,0E0,0E0,0E0,0E0],"parents":[2147483647,0,0,1,1,2,2,3,3,4,4,5,5,6,6,7,7,8,8,9,9,10,10,11,11,12,12,13,13],"right_children":[2,4,6,8,10,12,14,16,18,20,22,24,26,28,-1,-1,-1,-1,-1,-1,-1,-1,-1,-1,-1,-1,-1,-1,-1],"split_conditions":[6.931472E-1,5E-1,4.248495E0,2.1428572E-1,1.3862944E0,1E0,4.4426513E0,8.2E1,4.4886365E0,1.3862944E0,3.871201E0,1.0003785E1,3.871201E0,7.9487386E0,-3.5758857E-2,-3.5737038E-2,2.4255575E-3,-3.4586374E-2,1.5793594E-2,-3.1028269E-2,6.0730573E-4,-3.502236E-2,2.346304E-2,-3.7694633E-2,3.6074173E-2,3.4089472E-2,-6.401009E-2,1.6849807E-2,3.5841312E-2],"split_indices":[25,28,20,28,0,28,21,2,20,26,20,30,20,30,0,0,0,0,0,0,0,0,0,0,0,0,0,0,0],"split_type":[0,0,0,0,0,0,0,0,0,0,0,0,0,0,0,0,0,0,0,0,0,0,0,0,0,0,0,0,0],"sum_hessian":[5.0319666E5,2.5834058E5,2.4485606E5,2.4429053E5,1.405004E4,1.4736138E3,2.4338245E5,2.3431739E5,9.973141E3,6.576699E3,7.4733413E3,9.6350055E2,5.1011328E2,2.4312205E5,2.6040634E2,2.3409478E5,2.226088E2,8.400055E3,1.5730864E3,5.414386E3,1.162313E3,9.8437213E2,6.488969E3,8.5665796E2,1.0684256E2,4.860133E2,2.4099968E1,9.630382E2,2.4215902E5],"tree_param":{"num_deleted":"0","num_feature":"32","num_nodes":"29","size_leaf_vector":"1"}},{"base_weights":[9.121256E-4,-1.1028392E0,1.1735283E0,-1.1662811E0,-5.5839896E-2,-1.2191557E0,1.184469E0,-1.1757373E0,1.5675917E-1,-1.2318604E0,4.105306E-1,-3.86099E-2,-3.5909675E-2,1.1870375E0,-3.555437E-2,-3.570632E-2,-3.1115869E-2,-3.7088107E-2,3.6222566E-2,-3.6597338E-2,-4.0824503E-2,-2.4329687E-2,2.3310028E-2,3.562112E-2,-4.0803105E-2],"categories":[],"categories_nodes":[],"categories_segments":[],"categories_sizes":[],"default_left":[0,0,0,0,0,0,0,0,0,0,0,0,0,0,0,0,0,0,0,0,0,0,0,0,0],"id":38,"left_children":[1,3,5,7,9,11,13,15,17,19,21,-1,-1,23,-1,-1,-1,-1,-1,-1,-1,-1,-1,-1,-1],"loss_changes":[6.3624725E5,1.6820281E4,6.241E3,2.98725E3,7.935943E3,9.1674805E-2,1.4455625E3,4.7415625E2,2.4826719E3,4.6708984E0,4.638667E3,0E0,0E0,2.028125E2,0E0,0E0,0E0,0E0,0E0,0E0,0E0,0E0,0E0,0E0,0E0],"parents":[2147483647,0,0,1,1,2,2,3,3,4,4,5,5,6,6,7,7,8,8,9,9,10,10,13,13],"right_children":[2,4,6,8,10,12,14,16,18,20,22,-1,-1,24,-1,-1,-1,-1,-1,-1,-1,-1,-1,-1,-1],"split_conditions":[1E0,5E-1,9.269741E0,1.7548342E1,1.0202369E1,1E0,4.4426513E0,1.1515103E1,2.1428572E-1,5.227269E0,3.8918202E0,-3.86099E-2,-3.5909675E-2,1.9636097E0,-3.555437E-2,-3.570632E-2,-3.1115869E-2,-3.7088107E-2,3.6222566E-2,-3.6597338E-2,-4.0824503E-2,-2.4329687E-2,2.3310028E-2,3.562112E-2,-4.0803105E-2],"split_indices":[24,28,3,3,3,6,21,3,28,19,20,0,0,14,0,0,0,0,0,0,0,0,0,0,0],"split_type":[0,0,0,0,0,0,0,0,0,0,0,0,0,0,0,0,0,0,0,0,0,0,0,0,0],"sum_hessian":[4.915832E5,2.5322734E5,2.3835586E5,2.387598E5,1.4467546E4,1.0844257E3,2.3727144E5,2.3706555E5,1.6942577E3,4.1077134E3,1.0359833E4,2.5301248E2,8.314132E2,2.3701502E5,2.5641522E2,2.1463506E5,2.2430479E4,7.2836707E2,9.658906E2,3.7689465E3,3.387669E2,2.3905225E3,7.96931E3,2.3698455E5,3.047237E1],"tree_param":{"num_deleted":"0","num_feature":"32","num_nodes":"25","size_leaf_vector":"1"}},{"base_weights":[-2.6258265E-4,-1.1006267E0,1.1670959E0,-1.1822587E0,-5.7113725E-1,-3.6364794E-2,1.1778734E0,-1.184124E0,-8.8172007E-1,-1.0808011E0,3.9935637E-1,1.180412E0,-3.5352048E-2,-3.550414E-2,-3.6439177E-2,-3.349722E-2,2.0919098E-2,-9.532434E-3,-3.4622338E-2,-3.763227E-2,2.3079552E-2,3.5421338E-2,-4.0205166E-2],"categories":[],"categories_nodes":[],"categories_segments":[],"categories_sizes":[],"default_left":[0,0,0,0,0,0,0,0,0,0,0,0,0,0,0,0,0,0,0,0,0,0,0],"id":39,"left_children":[1,3,5,7,9,-1,11,13,15,17,19,21,-1,-1,-1,-1,-1,-1,-1,-1,-1,-1,-1],"loss_changes":[6.163098E5,1.0674875E4,5.9712812E3,1.189375E2,1.6319989E4,0E0,1.38775E3,2.8125E0,4.9170874E2,1.2092344E3,6.952275E3,1.7625E2,0E0,0E0,0E0,0E0,0E0,0E0,0E0,0E0,0E0,0E0,0E0],"parents":[2147483647,0,0,1,1,2,2,3,3,4,4,6,6,7,7,8,8,9,9,10,10,11,11],"right_children":[2,4,6,8,10,-1,12,14,16,18,20,22,-1,-1,-1,-1,-1,-1,-1,-1,-1,-1,-1],"split_conditions":[1E0,1.1515103E1,9.269741E0,1.0202369E1,1.609438E0,-3.6364794E-2,4.4426513E0,3.3333334E-1,3.3E1,1E0,3.6109178E0,1.9636097E0,-3.5352048E-2,-3.550414E-2,-3.6439177E-2,-3.349722E-2,2.0919098E-2,-9.532434E-3,-3.4622338E-2,-3.763227E-2,2.3079552E-2,3.5421338E-2,-4.0205166E-2],"split_indices":[24,3,3,3,27,0,21,31,2,5,20,14,0,0,0,0,0,0,0,0,0,0,0],"split_type":[0,0,0,0,0,0,0,0,0,0,0,0,0,0,0,0,0,0,0,0,0,0,0],"sum_hessian":[4.7979603E5,2.4698525E5,2.3281078E5,2.139925E5,3.2992758E4,1.0493236E3,2.3176145E5,2.1266966E5,1.3228336E3,2.163226E4,1.1360499E4,2.3151252E5,2.4892874E2,2.0825527E5,4.414398E3,1.1518131E3,1.710205E2,1.8958202E3,1.973644E4,2.0764006E3,9.284099E3,2.3148556E5,2.695789E1],"tree_param":{"num_deleted":"0","num_feature":"32","num_nodes":"23","size_leaf_vector":"1"}},{"base_weights":[-1.0859962E-3,-1.0926001E0,1.1603886E0,-1.1614051E0,-2.4598968E-1,-3.6105197E-2,1.1712507E0,-1.1669922E0,-1.7442688E-1,-1.2079382E0,4.2841828E-1,1.174207E0,-1.2169979E0,-3.5047762E-2,3.5620816E-3,-3.6891807E-2,3.5775173E-2,-3.6073502E-2,-3.748128E-2,-2.4671292E-2,2.2798903E-2,1.0654821E-2,3.5248186E-2,-4.476524E-2,-3.5158787E-2],"categories":[],"categories_nodes":[],"categories_segments":[],"categories_sizes":[],"default_left":[0,0,0,0,0,0,0,0,0,0,0,0,0,0,0,0,0,0,0,0,0,0,0,0,0],"id":40,"left_children":[1,3,5,7,9,-1,11,13,15,17,19,21,23,-1,-1,-1,-1,-1,-1,-1,-1,-1,-1,-1,-1],"loss_changes":[5.9309194E5,1.4048469E4,5.8210312E3,1.2298125E3,1.1761411E4,0E0,1.5943438E3,3.613125E2,1.8143091E3,1.9628906E-1,4.4203833E3,1.348125E2,1.7141724E0,0E0,0E0,0E0,0E0,0E0,0E0,0E0,0E0,0E0,0E0,0E0,0E0],"parents":[2147483647,0,0,1,1,2,2,3,3,4,4,6,6,7,7,8,8,9,9,10,10,11,11,12,12],"right_children":[2,4,6,8,10,-1,12,14,16,18,20,22,24,-1,-1,-1,-1,-1,-1,-1,-1,-1,-1,-1,-1],"split_conditions":[1E0,2.7272728E-1,9.269741E0,1.7548342E1,1.0202369E1,-3.6105197E-2,4.173602E0,8.2E1,2.1428572E-1,5.173611E0,1.3862944E0,1.3862944E0,3.5553482E0,-3.5047762E-2,3.5620816E-3,-3.6891807E-2,3.5775173E-2,-3.6073502E-2,-3.748128E-2,-2.4671292E-2,2.2798903E-2,1.0654821E-2,3.5248186E-2,-4.476524E-2,-3.5158787E-2],"split_indices":[24,28,3,3,3,0,4,2,28,19,27,27,21,0,0,0,0,0,0,0,0,0,0,0,0],"split_type":[0,0,0,0,0,0,0,0,0,0,0,0,0,0,0,0,0,0,0,0,0,0,0,0,0],"sum_hessian":[4.6782253E5,2.4117478E5,2.2664775E5,2.2304711E5,1.8127666E4,1.0361844E3,2.2561158E5,2.2179139E5,1.2557156E3,7.47081E3,1.0656855E4,2.2533316E5,2.78416E2,2.215732E5,2.1818678E2,7.086916E2,5.4702405E2,6.6235947E3,8.472155E2,2.2326038E3,8.424252E3,2.0180913E2,2.2513134E5,3.4639908E1,2.4377608E2],"tree_param":{"num_deleted":"0","num_feature":"32","num_nodes":"25","size_leaf_vector":"1"}},{"base_weights":[-2.4415217E-3,-1.0859447E0,1.1541886E0,-1.1473987E0,-7.986261E-2,-1.0044302E-1,1.1665407E0,-1.155796E0,-3.2333678E-1,-8.952398E-1,5.2583075E-1,-1.0608639E0,9.388593E-1,1.1690929E0,-3.497172E-2,-3.4712285E-2,9.434486E-3,-3.751696E-2,3.5811696E-2,-3.0488597E-2,2.4272537E-2,-3.0155722E-2,2.3162372E-2,-3.7320614E-2,1.5438638E-2,-7.748981E-2,2.9539648E-2,3.3252675E-2,3.509254E-2],"categories":[],"categories_nodes":[],"categories_segments":[],"categories_sizes":[],"default_left":[0,0,0,0,0,0,0,0,0,0,0,0,0,0,0,0,0,0,0,0,0,0,0,0,0,0,0,0,0],"id":41,"left_children":[1,3,5,7,9,11,13,15,17,19,21,23,25,27,-1,-1,-1,-1,-1,-1,-1,-1,-1,-1,-1,-1,-1,-1,-1],"loss_changes":[5.7128944E5,1.4552375E4,3.4170938E3,1.5345938E3,6.6926245E3,2.147577E3,1.3009688E3,4.1365625E2,3.1509666E3,1.1924072E3,2.9322585E3,3.2329236E2,1.692121E2,7.4375E0,0E0,0E0,0E0,0E0,0E0,0E0,0E0,0E0,0E0,0E0,0E0,0E0,0E0,0E0,0E0],"parents":[2147483647,0,0,1,1,2,2,3,3,4,4,5,5,6,6,7,7,8,8,9,9,10,10,11,11,12,12,13,13],"right_children":[2,4,6,8,10,12,14,16,18,20,22,24,26,28,-1,-1,-1,-1,-1,-1,-1,-1,-1,-1,-1,-1,-1,-1,-1],"split_conditions":[6.931472E-1,5E-1,4.836282E0,5.7365723E0,4.907969E0,3.3333334E-1,2.0555155E0,8.2E1,2.1428572E-1,2.7725887E0,3.871201E0,5.86505E0,1.6161151E-2,9.132379E0,-3.497172E-2,-3.4712285E-2,9.434486E-3,-3.751696E-2,3.5811696E-2,-3.0488597E-2,2.4272537E-2,-3.0155722E-2,2.3162372E-2,-3.7320614E-2,1.5438638E-2,-7.748981E-2,2.9539648E-2,3.3252675E-2,3.509254E-2],"split_indices":[25,28,27,27,19,28,4,2,28,27,20,19,4,29,0,0,0,0,0,0,0,0,0,0,0,0,0,0,0],"split_type":[0,0,0,0,0,0,0,0,0,0,0,0,0,0,0,0,0,0,0,0,0,0,0,0,0,0,0,0,0],"sum_hessian":[4.55858E5,2.3536956E5,2.2048844E5,2.2182008E5,1.3549476E4,2.1495215E3,2.1833892E5,2.1958211E5,2.2379707E3,5.7748984E3,7.774577E3,1.1171451E3,1.0323763E3,2.1810077E5,2.3816006E2,2.193913E5,1.9081232E2,1.3891168E3,8.488539E2,5.3923213E3,3.825771E2,1.076774E3,6.697803E3,1.0009868E3,1.1615837E2,1.2540798E1,1.0198355E3,2.3599329E3,2.1574083E5],"tree_param":{"num_deleted":"0","num_feature":"32","num_nodes":"29","size_leaf_vector":"1"}},{"base_weights":[2.5761428E-3,-1.079249E0,1.1488539E0,-1.1387528E0,-1.0253598E-1,-3.5741255E-2,1.1594201E0,-1.1485752E0,1.6673724E-1,-1.2041273E0,3.4160024E-1,1.1619248E0,-3.479329E-2,-3.4956582E-2,-2.9744828E-2,-3.6401857E-2,3.51691E-2,-3.579491E-2,-3.9937057E-2,-2.2790773E-2,2.0646635E-2,3.486781E-2,-3.957445E-2],"categories":[],"categories_nodes":[],"categories_segments":[],"categories_sizes":[],"default_left":[0,0,0,0,0,0,0,0,0,0,0,0,0,0,0,0,0,0,0,0,0,0,0],"id":42,"left_children":[1,3,5,7,9,-1,11,13,15,17,19,21,-1,-1,-1,-1,-1,-1,-1,-1,-1,-1,-1],"loss_changes":[5.5421994E5,1.3362781E4,5.3671875E3,2.7792188E3,6.460762E3,0E0,1.2561875E3,5.6125E2,2.2487114E3,3.6992188E0,3.5930537E3,1.8115625E2,0E0,0E0,0E0,0E0,0E0,0E0,0E0,0E0,0E0,0E0,0E0],"parents":[2147483647,0,0,1,1,2,2,3,3,4,4,6,6,7,7,8,8,9,9,10,10,11,11],"right_children":[2,4,6,8,10,-1,12,14,16,18,20,22,-1,-1,-1,-1,-1,-1,-1,-1,-1,-1,-1],"split_conditions":[1E0,5E-1,9.269741E0,1.7548342E1,1.0202369E1,-3.5741255E-2,4.4426513E0,1.1515103E1,2.1428572E-1,5.2473803E0,3.8918202E0,1.9636097E0,-3.479329E-2,-3.4956582E-2,-2.9744828E-2,-3.6401857E-2,3.51691E-2,-3.579491E-2,-3.9937057E-2,-2.2790773E-2,2.0646635E-2,3.486781E-2,-3.957445E-2],"split_indices":[24,28,3,3,3,0,21,3,28,19,20,14,0,0,0,0,0,0,0,0,0,0,0],"split_type":[0,0,0,0,0,0,0,0,0,0,0,0,0,0,0,0,0,0,0,0,0,0,0],"sum_hessian":[4.4692347E5,2.2992586E5,2.1699761E5,2.1672244E5,1.3203422E4,9.7485443E2,2.1602277E5,2.1510414E5,1.6183007E3,3.7932673E3,9.410154E3,2.1579022E5,2.3254388E2,1.9448964E5,2.061451E4,6.8202264E2,9.36278E2,3.5016257E3,2.916416E2,2.2524436E3,7.157711E3,2.1576158E5,2.8641964E1],"tree_param":{"num_deleted":"0","num_feature":"32","num_nodes":"23","size_leaf_vector":"1"}},{"base_weights":[9.418561E-5,-1.074093E0,1.143162E0,-1.1424946E0,-2.4524516E-1,-3.5532422E-2,1.1538436E0,-1.1485255E0,-1.2059633E-1,-1.1889436E0,4.039131E-1,3.721815E-1,1.1566472E0,-3.4496386E-2,4.817253E-3,-3.6150604E-2,3.524422E-2,-3.5494827E-2,-3.6943074E-2,-2.8744608E-2,2.3801712E-2,3.4419857E-2,-3.0336807E-2,-6.254309E-2,3.4720268E-2],"categories":[],"categories_nodes":[],"categories_segments":[],"categories_sizes":[],"default_left":[0,0,0,0,0,0,0,0,0,0,0,0,0,0,0,0,0,0,0,0,0,0,0,0,0],"id":43,"left_children":[1,3,5,7,9,-1,11,13,15,17,19,21,23,-1,-1,-1,-1,-1,-1,-1,-1,-1,-1,-1,-1],"loss_changes":[5.342728E5,1.27174375E4,5.2423438E3,1.2769375E3,1.0477478E4,0E0,4.594375E2,3.6534375E2,1.7108663E3,2.548828E-1,5.3763003E3,8.069539E2,4.735E2,0E0,0E0,0E0,0E0,0E0,0E0,0E0,0E0,0E0,0E0,0E0,0E0],"parents":[2147483647,0,0,1,1,2,2,3,3,4,4,6,6,7,7,8,8,9,9,10,10,11,11,12,12],"right_children":[2,4,6,8,10,-1,12,14,16,18,20,22,24,-1,-1,-1,-1,-1,-1,-1,-1,-1,-1,-1,-1],"split_conditions":[1E0,2.7272728E-1,9.269741E0,1.7548342E1,1.0202369E1,-3.5532422E-2,2.1353357E-1,8.2E1,2.1428572E-1,5.173611E0,3.8918202E0,6.931472E-1,1.3862944E0,-3.4496386E-2,4.817253E-3,-3.6150604E-2,3.524422E-2,-3.5494827E-2,-3.6943074E-2,-2.8744608E-2,2.3801712E-2,3.4419857E-2,-3.0336807E-2,-6.254309E-2,3.4720268E-2],"split_indices":[24,28,3,3,3,0,18,2,28,19,20,1,27,0,0,0,0,0,0,0,0,0,0,0,0],"split_type":[0,0,0,0,0,0,0,0,0,0,0,0,0,0,0,0,0,0,0,0,0,0,0,0,0],"sum_hessian":[4.351201E5,2.2431875E5,2.1080134E5,2.072175E5,1.7101238E4,9.6247125E2,2.0983888E5,2.0600161E5,1.215893E3,6.9691577E3,1.013208E4,7.504314E2,2.0908844E5,2.0578888E5,2.127367E2,6.61881E2,5.54012E2,6.1597227E3,8.094355E2,2.252668E3,7.879412E3,4.8105743E2,2.6937396E2,4.4181053E1,2.0904425E5],"tree_param":{"num_deleted":"0","num_feature":"32","num_nodes":"25","size_leaf_vector":"1"}},{"base_weights":[-1.1513006E-4,-1.0725411E0,1.1376046E0,-1.1282094E0,-1.5024097E-1,1.1465011E0,-4.0005708E-1,-1.1369492E0,-2.9109168E-1,-8.72641E-1,4.5582262E-1,1.149254E0,-1.1773806E0,-9.7936255E-1,1.174921E0,-3.427484E-2,-2.2177603E-2,-3.6877617E-2,3.4950126E-2,-2.7645158E-2,4.7694907E-2,-4.8477456E-2,1.8066656E-2,1.7096847E-2,3.455848E-2,-3.451E-2,-4.822993E-2,-3.6539234E-2,1.9767648E-2,-3.5941444E-2,3.6694642E-2],"categories":[],"categories_nodes":[],"categories_segments":[],"categories_sizes":[],"default_left":[0,0,0,0,0,0,0,0,0,0,0,0,0,0,0,0,0,0,0,0,0,0,0,0,0,0,0,0,0,0,0],"id":44,"left_children":[1,3,5,7,9,11,13,15,17,19,21,23,25,27,29,-1,-1,-1,-1,-1,-1,-1,-1,-1,-1,-1,-1,-1,-1,-1,-1],"loss_changes":[5.1816056E5,1.1224016E4,2.8194062E3,1.5080625E3,5.4491187E3,1.3120625E3,1.0833608E3,4.49125E2,2.9132878E3,6.8467773E2,2.053754E3,3.1890625E2,9.7766113E-1,3.400025E2,3.8024536E1,0E0,0E0,0E0,0E0,0E0,0E0,0E0,0E0,0E0,0E0,0E0,0E0,0E0,0E0,0E0,0E0],"parents":[2147483647,0,0,1,1,2,2,3,3,4,4,5,5,6,6,7,7,8,8,9,9,10,10,11,11,12,12,13,13,14,14],"right_children":[2,4,6,8,10,12,14,16,18,20,22,24,26,28,30,-1,-1,-1,-1,-1,-1,-1,-1,-1,-1,-1,-1,-1,-1,-1,-1],"split_conditions":[1E0,5E-1,1E0,5.7365723E0,1.3862944E0,4.173602E0,1.0003785E1,3.3333334E-1,2.1428572E-1,5.2040067E0,3.5263605E0,3.9318256E0,4.4444445E-1,5.86505E0,3.2580965E0,-3.427484E-2,-2.2177603E-2,-3.6877617E-2,3.4950126E-2,-2.7645158E-2,4.7694907E-2,-4.8477456E-2,1.8066656E-2,1.7096847E-2,3.455848E-2,-3.451E-2,-4.822993E-2,-3.6539234E-2,1.9767648E-2,-3.5941444E-2,3.6694642E-2],"split_indices":[24,28,6,27,0,4,30,28,28,27,20,27,28,19,27,0,0,0,0,0,0,0,0,0,0,0,0,0,0,0,0],"split_type":[0,0,0,0,0,0,0,0,0,0,0,0,0,0,0,0,0,0,0,0,0,0,0,0,0,0,0,0,0,0,0],"sum_hessian":[4.246779E5,2.1861206E5,2.0606586E5,2.0616795E5,1.2444107E4,2.0488073E5,1.1851223E3,2.0403738E5,2.1305813E3,5.676974E3,6.7671333E3,2.0463881E5,2.4191371E2,8.667092E2,3.1841318E2,2.012295E5,2.8078804E3,1.2958325E3,8.347487E2,5.567128E3,1.0984596E2,4.4597504E2,6.321158E3,9.4861053E2,2.036902E5,2.3106276E2,1.0850945E1,7.567474E2,1.09961815E2,5.8683367E0,3.1254483E2],"tree_param":{"num_deleted":"0","num_feature":"32","num_nodes":"31","size_leaf_vector":"1"}},{"base_weights":[4.8729044E-4,-1.0635346E0,1.1323512E0,-1.1253166E0,-9.14746E-2,-3.5284877E-2,1.1430266E0,-1.1345013E0,1.435518E-1,-1.1865823E0,3.3085713E-1,1.1455368E0,-3.4319226E-2,-3.4229767E-2,-2.0386703E-2,-3.573659E-2,3.463757E-2,-3.5264328E-2,-3.9127614E-2,-2.2420092E-2,1.9567218E-2,3.438287E-2,-4.153783E-2],"categories":[],"categories_nodes":[],"categories_segments":[],"categories_sizes":[],"default_left":[0,0,0,0,0,0,0,0,0,0,0,0,0,0,0,0,0,0,0,0,0,0,0],"id":45,"left_children":[1,3,5,7,9,-1,11,13,15,17,19,21,-1,-1,-1,-1,-1,-1,-1,-1,-1,-1,-1],"loss_changes":[4.994147E5,1.2836672E4,4.9533125E3,2.3423594E3,5.9086074E3,0E0,1.1494844E3,5.8840625E2,1.9516488E3,3.112793E0,3.1953218E3,2.8415625E2,0E0,0E0,0E0,0E0,0E0,0E0,0E0,0E0,0E0,0E0,0E0],"parents":[2147483647,0,0,1,1,2,2,3,3,4,4,6,6,7,7,8,8,9,9,10,10,11,11],"right_children":[2,4,6,8,10,-1,12,14,16,18,20,22,-1,-1,-1,-1,-1,-1,-1,-1,-1,-1,-1],"split_conditions":[6.931472E-1,5E-1,9.269741E0,1.7548342E1,1.0202369E1,-3.5284877E-2,4.4426513E0,3.3333334E-1,2.1428572E-1,5.227269E0,3.871201E0,1.9459101E0,-3.4319226E-2,-3.4229767E-2,-2.0386703E-2,-3.573659E-2,3.463757E-2,-3.5264328E-2,-3.9127614E-2,-2.2420092E-2,1.9567218E-2,3.438287E-2,-4.153783E-2],"split_indices":[25,28,3,3,3,0,21,28,28,19,20,14,0,0,0,0,0,0,0,0,0,0,0],"split_type":[0,0,0,0,0,0,0,0,0,0,0,0,0,0,0,0,0,0,0,0,0,0,0],"sum_hessian":[4.1468128E5,2.1374645E5,2.0093481E5,2.009729E5,1.2773554E4,9.244253E2,2.0001039E5,1.9952872E5,1.4441831E3,3.5546147E3,9.218939E3,1.9979161E5,2.1878186E2,1.967205E5,2.8082222E3,6.22361E2,8.21822E2,3.2581313E3,2.964835E2,2.1166316E3,7.1023076E3,1.9974803E5,4.3578217E1],"tree_param":{"num_deleted":"0","num_feature":"32","num_nodes":"23","size_leaf_vector":"1"}},{"base_weights":[7.463174E-4,-1.0439143E0,1.1314607E0,-1.1195936E0,2.2985648E-2,1.1356181E0,-3.4204386E-2,-1.1288639E0,-6.667382E-1,4.1741234E-1,-9.6429425E-1,-3.703805E-2,1.1391262E0,-3.4060992E-2,-2.7512096E-2,-3.5095472E-2,4.7300875E-2,-1.2276006E-2,2.1428648E-2,-3.2112733E-2,2.8627975E-2,3.4196902E-2,-4.421409E-2],"categories":[],"categories_nodes":[],"categories_segments":[],"categories_sizes":[],"default_left":[0,0,0,0,0,0,0,0,0,0,0,0,0,0,0,0,0,0,0,0,0,0,0],"id":46,"left_children":[1,3,5,7,9,11,-1,13,15,17,19,-1,21,-1,-1,-1,-1,-1,-1,-1,-1,-1,-1],"loss_changes":[4.7735984E5,1.6960453E4,1.8341406E3,8.226875E2,5.4187197E3,1.6120938E3,0E0,2.6367188E2,4.445677E3,2.440292E3,8.098479E2,0E0,3.911875E2,0E0,0E0,0E0,0E0,0E0,0E0,0E0,0E0,0E0,0E0],"parents":[2147483647,0,0,1,1,2,2,3,3,4,4,5,5,7,7,8,8,9,9,10,10,12,12],"right_children":[2,4,6,8,10,12,-1,14,16,18,20,-1,22,-1,-1,-1,-1,-1,-1,-1,-1,-1,-1],"split_conditions":[6.391917E0,5E-1,4.4426513E0,2.7272728E-1,4.1666668E-4,4.5601237E-3,-3.4204386E-2,4.574711E0,2.7080503E0,3.8918202E0,3.871201E0,-3.703805E-2,2.9136863E0,-3.4060992E-2,-2.7512096E-2,-3.5095472E-2,4.7300875E-2,-1.2276006E-2,2.1428648E-2,-3.2112733E-2,2.8627975E-2,3.4196902E-2,-4.421409E-2],"split_indices":[27,28,21,28,31,4,0,27,27,20,27,0,4,0,0,0,0,0,0,0,0,0,0],"split_type":[0,0,0,0,0,0,0,0,0,0,0,0,0,0,0,0,0,0,0,0,0,0,0],"sum_hessian":[4.041249E5,2.100557E5,1.940692E5,1.9614252E5,1.39131875E4,1.9371517E5,3.540403E2,1.9220638E5,3.936138E3,9.941894E3,3.9712937E3,2.8576117E2,1.934294E5,1.8647684E5,5.7295244E3,3.215509E3,7.20629E2,2.6269932E3,7.3149004E3,3.7635454E3,2.0774825E2,1.9337294E5,5.6469204E1],"tree_param":{"num_deleted":"0","num_feature":"32","num_nodes":"23","size_leaf_vector":"1"}},{"base_weights":[2.3220854E-3,-1.0468847E0,1.1224788E0,-1.1105312E0,-8.055716E-2,-3.496537E-2,1.1330541E0,-1.1200577E0,1.6054082E-1,-1.1781627E0,3.3051166E-1,1.1355182E0,-3.4013636E-2,-3.417674E-2,-2.822769E-2,-3.535419E-2,3.4112517E-2,-3.499658E-2,-3.8739357E-2,-2.2167293E-2,1.958797E-2,-6.2409468E-2,3.4083657E-2],"categories":[],"categories_nodes":[],"categories_segments":[],"categories_sizes":[],"default_left":[0,0,0,0,0,0,0,0,0,0,0,0,0,0,0,0,0,0,0,0,0,0,0],"id":47,"left_children":[1,3,5,7,9,-1,11,13,15,17,19,21,-1,-1,-1,-1,-1,-1,-1,-1,-1,-1,-1],"loss_changes":[4.638072E5,1.25325625E4,4.6195312E3,2.3151406E3,5.682253E3,0E0,1.0625E3,6.504531E2,1.8621543E3,3.0014648E0,3.1597732E3,3.708125E2,0E0,0E0,0E0,0E0,0E0,0E0,0E0,0E0,0E0,0E0,0E0],"parents":[2147483647,0,0,1,1,2,2,3,3,4,4,6,6,7,7,8,8,9,9,10,10,11,11],"right_children":[2,4,6,8,10,-1,12,14,16,18,20,22,-1,-1,-1,-1,-1,-1,-1,-1,-1,-1,-1],"split_conditions":[1E0,5E-1,9.269741E0,1.7548342E1,1.0202369E1,-3.496537E-2,4.4426513E0,1.1515103E1,2.1428572E-1,5.199976E0,3.8918202E0,1.6161151E-2,-3.4013636E-2,-3.417674E-2,-2.822769E-2,-3.535419E-2,3.4112517E-2,-3.499658E-2,-3.8739357E-2,-2.2167293E-2,1.958797E-2,-6.2409468E-2,3.4083657E-2],"split_indices":[24,28,3,3,3,0,21,3,28,19,20,4,0,0,0,0,0,0,0,0,0,0,0],"split_type":[0,0,0,0,0,0,0,0,0,0,0,0,0,0,0,0,0,0,0,0,0,0,0],"sum_hessian":[3.946348E5,2.037708E5,1.9086403E5,1.9117878E5,1.2592023E4,8.77628E2,1.899864E5,1.897567E5,1.4220712E3,3.4304429E3,9.16158E3,1.8978061E5,2.0579744E2,1.714107E5,1.8345998E4,5.996449E2,8.2242633E2,3.1214656E3,3.089773E2,2.121984E3,7.0395967E3,3.497431E1,1.8974562E5],"tree_param":{"num_deleted":"0","num_feature":"32","num_nodes":"23","size_leaf_vector":"1"}},{"base_weights":[-1.491497E-3,-1.0420537E0,1.1178721E0,-1.1181105E0,-1.9443846E-1,-3.478639E-2,1.1285242E0,-1.1241534E0,-1.05646946E-1,-1.1637024E0,4.1017637E-1,1.1309893E0,-3.3871442E-2,-3.3771034E-2,9.193869E-3,-3.5176672E-2,3.4420658E-2,-3.467726E-2,-3.5763938E-2,-2.2987895E-2,2.146706E-2,5.474627E-3,3.3960924E-2],"categories":[],"categories_nodes":[],"categories_segments":[],"categories_sizes":[],"default_left":[0,0,0,0,0,0,0,0,0,0,0,0,0,0,0,0,0,0,0,0,0,0,0],"id":48,"left_children":[1,3,5,7,9,-1,11,13,15,17,19,21,-1,-1,-1,-1,-1,-1,-1,-1,-1,-1,-1],"loss_changes":[4.468784E5,1.2817734E4,4.48525E3,1.1162188E3,9.595711E3,0E0,1.025125E3,4.0195312E2,1.4500012E3,1.6601562E-2,3.6235215E3,1.8132812E2,0E0,0E0,0E0,0E0,0E0,0E0,0E0,0E0,0E0,0E0,0E0],"parents":[2147483647,0,0,1,1,2,2,3,3,4,4,6,6,7,7,8,8,9,9,10,10,11,11],"right_children":[2,4,6,8,10,-1,12,14,16,18,20,22,-1,-1,-1,-1,-1,-1,-1,-1,-1,-1,-1],"split_conditions":[1E0,2.7272728E-1,9.269741E0,1.7548342E1,1.0202369E1,-3.478639E-2,4.4426513E0,8.2E1,2.1428572E-1,1.3862944E0,1.3862944E0,1.3862944E0,-3.3871442E-2,-3.3771034E-2,9.193869E-3,-3.5176672E-2,3.4420658E-2,-3.467726E-2,-3.5763938E-2,-2.2987895E-2,2.146706E-2,5.474627E-3,3.3960924E-2],"split_indices":[24,28,3,3,3,0,21,2,28,0,27,27,0,0,0,0,0,0,0,0,0,0,0],"split_type":[0,0,0,0,0,0,0,0,0,0,0,0,0,0,0,0,0,0,0,0,0,0,0],"sum_hessian":[3.836612E5,1.9882925E5,1.8483192E5,1.8245702E5,1.6372244E4,8.599841E2,1.8397194E5,1.8137436E5,1.0826426E3,6.2891396E3,1.00831045E4,1.8377177E5,2.0017024E2,1.8117856E5,1.958018E2,5.8477844E2,4.9786414E2,4.9686675E3,1.3204719E3,2.0777268E3,8.005378E3,2.0175203E2,1.8357002E5],"tree_param":{"num_deleted":"0","num_feature":"32","num_nodes":"23","size_leaf_vector":"1"}},{"base_weights":[3.1257747E-4,-1.0370412E0,1.1133461E0,-1.1034472E0,-6.8323575E-2,1.1208196E0,-5.2828586E-1,-1.117561E0,-7.822146E-1,-6.1297876E-1,6.4617276E-1,1.1235589E0,-3.4408595E-2,-1.1025234E0,6.9644046E-1,-3.3575032E-2,9.853748E-3,-3.200917E-2,1.6849872E-2,-6.1997334E-3,-3.3992525E-2,-5.063633E-2,2.3110408E-2,1.4943785E-2,3.382655E-2,-3.5435393E-2,2.8182304E-2,3.1191215E-2,-3.530925E-2],"categories":[],"categories_nodes":[],"categories_segments":[],"categories_sizes":[],"default_left":[0,0,0,0,0,0,0,0,0,0,0,0,0,0,0,0,0,0,0,0,0,0,0,0,0,0,0,0,0],"id":49,"left_children":[1,3,5,7,9,11,13,15,17,19,21,23,-1,25,27,-1,-1,-1,-1,-1,-1,-1,-1,-1,-1,-1,-1,-1,-1],"loss_changes":[4.3272556E5,1.247875E4,2.2187188E3,8.222031E2,4.8437153E3,1.1192812E3,5.774722E2,4.0440625E2,2.925754E3,1.4923386E3,1.5617361E3,4.4834375E2,0E0,9.0835205E1,1.6994633E2,0E0,0E0,0E0,0E0,0E0,0E0,0E0,0E0,0E0,0E0,0E0,0E0,0E0,0E0],"parents":[2147483647,0,0,1,1,2,2,3,3,4,4,5,5,6,6,7,7,8,8,9,9,10,10,11,11,13,13,14,14],"right_children":[2,4,6,8,10,12,14,16,18,20,22,24,-1,26,28,-1,-1,-1,-1,-1,-1,-1,-1,-1,-1,-1,-1,-1,-1],"split_conditions":[1E0,5E-1,1.3663602E0,2.1428572E-1,5.307218E0,4.173602E0,1.9459101E0,8.2E1,4.465908E0,4.1666668E-4,3.637586E0,8.844769E0,-3.4408595E-2,1.04919405E1,4.1666668E-4,-3.3575032E-2,9.853748E-3,-3.200917E-2,1.6849872E-2,-6.1997334E-3,-3.3992525E-2,-5.063633E-2,2.3110408E-2,1.4943785E-2,3.382655E-2,-3.5435393E-2,2.8182304E-2,3.1191215E-2,-3.530925E-2],"split_indices":[24,28,14,28,19,4,0,2,20,31,20,30,0,29,31,0,0,0,0,0,0,0,0,0,0,0,0,0,0],"split_type":[0,0,0,0,0,0,0,0,0,0,0,0,0,0,0,0,0,0,0,0,0,0,0,0,0,0,0,0,0],"sum_hessian":[3.7477888E5,1.9398436E5,1.807945E5,1.8153961E5,1.244476E4,1.7997548E5,8.1901654E2,1.7389673E5,7.642876E3,7.0617686E3,5.382991E3,1.7975886E5,2.1662466E2,5.5765063E2,2.6136594E2,1.7370394E5,1.92787E2,6.306731E3,1.3361448E3,3.965335E3,3.0964338E3,2.712791E2,5.1117124E3,1.1411177E3,1.7861773E5,5.3737225E2,2.0278332E1,2.2126794E2,4.0098003E1],"tree_param":{"num_deleted":"0","num_feature":"32","num_nodes":"29","size_leaf_vector":"1"}},{"base_weights":[-1.8936266E-3,-1.0335039E0,1.108903E0,-1.1085931E0,-2.063077E-1,-6.3706726E-2,1.1196952E0,-1.114355E0,-4.954924E-1,-7.451606E-1,6.3663965E-1,-8.605696E-1,7.923293E-1,1.1221896E0,-3.360342E-2,-3.3577625E-2,-2.7758801E-2,-3.5825945E-2,3.4196608E-2,-9.906828E-3,-3.5101335E-2,2.6251413E-2,-2.8904464E-2,-3.6395803E-2,2.489017E-2,-7.4048094E-2,2.647785E-2,3.370496E-2,-3.544668E-2],"categories":[],"categories_nodes":[],"categories_segments":[],"categories_sizes":[],"default_left":[0,0,0,0,0,0,0,0,0,0,0,0,0,0,0,0,0,0,0,0,0,0,0,0,0,0,0,0,0],"id":50,"left_children":[1,3,5,7,9,11,13,15,17,19,21,23,25,27,-1,-1,-1,-1,-1,-1,-1,-1,-1,-1,-1,-1,-1,-1,-1],"loss_changes":[4.178831E5,1.1743953E4,2.2222344E3,6.117969E2,7.148317E3,1.0936877E3,9.733906E2,1.5803125E2,1.8475238E3,1.6921128E3,2.3420525E3,4.9589105E2,2.2968658E2,5.254844E2,0E0,0E0,0E0,0E0,0E0,0E0,0E0,0E0,0E0,0E0,0E0,0E0,0E0,0E0,0E0],"parents":[2147483647,0,0,1,1,2,2,3,3,4,4,5,5,6,6,7,7,8,8,9,9,10,10,11,11,12,12,13,13],"right_children":[2,4,6,8,10,12,14,16,18,20,22,24,26,28,-1,-1,-1,-1,-1,-1,-1,-1,-1,-1,-1,-1,-1,-1,-1],"split_conditions":[1E0,2.7272728E-1,3.871201E0,5.7365723E0,2.0794415E0,3.3333334E-1,2.0555155E0,4.574711E0,2.1428572E-1,4.1666668E-4,2.3978953E0,1.9459101E0,6.503382E-2,9.427145E-1,-3.360342E-2,-3.3577625E-2,-2.7758801E-2,-3.5825945E-2,3.4196608E-2,-9.906828E-3,-3.5101335E-2,2.6251413E-2,-2.8904464E-2,-3.6395803E-2,2.489017E-2,-7.4048094E-2,2.647785E-2,3.370496E-2,-3.544668E-2],"split_indices":[24,28,27,27,27,28,4,27,28,31,21,0,4,18,0,0,0,0,0,0,0,0,0,0,0,0,0,0,0],"split_type":[0,0,0,0,0,0,0,0,0,0,0,0,0,0,0,0,0,0,0,0,0,0,0,0,0,0,0,0,0],"sum_hessian":[3.6467178E5,1.8907531E5,1.7559645E5,1.7333995E5,1.5735361E4,1.6013112E3,1.7399514E5,1.7172527E5,1.6146863E3,9.599201E3,6.1361597E3,8.2931604E2,7.719952E2,1.7380208E5,1.9306834E2,1.6738283E5,4.3424463E3,1.1315208E3,4.8316556E2,4.8573706E3,4.741831E3,5.3408604E3,7.9529926E2,6.863994E2,1.4291664E2,2.008635E1,7.519088E2,1.7370389E5,9.8189995E1],"tree_param":{"num_deleted":"0","num_feature":"32","num_nodes":"29","size_leaf_vector":"1"}},{"base_weights":[3.4861164E-3,-1.0215676E0,1.104908E0,-1.1006519E0,-1.5335298E-1,8.061075E-2,1.1171304E0,-1.1122184E0,-7.7924454E-1,-7.701891E-1,5.694352E-1,-7.505614E-1,8.9377105E-1,1.1195806E0,-3.3466425E-2,-3.357172E-2,-3.122775E-2,4.83798E-2,-3.4099117E-2,-2.6153386E-2,1.812836E-2,-3.1355835E-2,2.2254597E-2,-2.9419769E-2,3.7024263E-2,-7.3677346E-2,2.7957845E-2,3.130845E-2,3.361225E-2],"categories":[],"categories_nodes":[],"categories_segments":[],"categories_sizes":[],"default_left":[0,0,0,0,0,0,0,0,0,0,0,0,0,0,0,0,0,0,0,0,0,0,0,0,0,0,0,0,0],"id":51,"left_children":[1,3,5,7,9,11,13,15,17,19,21,23,25,27,-1,-1,-1,-1,-1,-1,-1,-1,-1,-1,-1,-1,-1,-1,-1],"loss_changes":[4.0237372E5,1.2674594E4,2.1506719E3,6.280781E2,6.871751E3,1.3705752E3,9.3003125E2,7.846875E1,5.028604E3,1.1616987E3,1.9761636E3,4.5919678E2,1.3329657E2,9.515625E0,0E0,0E0,0E0,0E0,0E0,0E0,0E0,0E0,0E0,0E0,0E0,0E0,0E0,0E0,0E0],"parents":[2147483647,0,0,1,1,2,2,3,3,4,4,5,5,6,6,7,7,8,8,9,9,10,10,11,11,12,12,13,13],"right_children":[2,4,6,8,10,12,14,16,18,20,22,24,26,28,-1,-1,-1,-1,-1,-1,-1,-1,-1,-1,-1,-1,-1,-1,-1],"split_conditions":[1E0,3E-1,4.836282E0,4.574711E0,5.0778213E0,3.3333334E-1,2.0555155E0,5.5425262E0,3.4965076E0,2.6390574E0,3.7612002E0,1.0003785E1,1.6161151E-2,9.132379E0,-3.3466425E-2,-3.357172E-2,-3.122775E-2,4.83798E-2,-3.4099117E-2,-2.6153386E-2,1.812836E-2,-3.1355835E-2,2.2254597E-2,-2.9419769E-2,3.7024263E-2,-7.3677346E-2,2.7957845E-2,3.130845E-2,3.361225E-2],"split_indices":[24,28,27,27,19,28,4,19,26,27,20,30,4,29,0,0,0,0,0,0,0,0,0,0,0,0,0,0,0],"split_type":[0,0,0,0,0,0,0,0,0,0,0,0,0,0,0,0,0,0,0,0,0,0,0,0,0,0,0,0,0],"sum_hessian":[3.563911E5,1.8459512E5,1.7179595E5,1.6918414E5,1.5410995E4,2.0258567E3,1.6977011E5,1.6330484E5,5.879301E3,8.314896E3,7.0960986E3,1.00187085E3,1.0239858E3,1.6958448E5,1.8561377E2,1.489971E5,1.4307738E4,7.638184E2,5.115482E3,7.74296E3,5.719362E2,6.840382E2,6.4120605E3,8.98239E2,1.0363187E2,1.0819474E1,1.0131663E3,1.8415604E3,1.6774292E5],"tree_param":{"num_deleted":"0","num_feature":"32","num_nodes":"29","size_leaf_vector":"1"}}]},"name":"gbtree"},"learner_model_param":{"base_score":"[5E-1]","boost_from_average":"1","num_class":"0","num_feature":"32","num_target":"1"},"objective":{"name":"binary:logistic","reg_loss_param":{"scale_pos_weight":"149.735245"}}},"version":[3,2,0]}